<?xml version="1.0"?>
<opencv_storage>
<cascade>
  <stageType>BOOST</stageType>
  <featureType>HAAR</featureType>
  <height>40</height>
  <width>40</width>
  <stageParams>
    <boostType>GAB</boostType>
    <minHitRate>9.9500000476837158e-01</minHitRate>
    <maxFalseAlarm>5.0000000000000000e-01</maxFalseAlarm>
    <weightTrimRate>9.4999999999999996e-01</weightTrimRate>
    <maxDepth>1</maxDepth>
    <maxWeakCount>100</maxWeakCount></stageParams>
  <featureParams>
    <maxCatCount>0</maxCatCount>
    <featSize>1</featSize>
    <mode>BASIC</mode></featureParams>
  <stageNum>10</stageNum>
  <stages>
    <!-- stage 0 -->
    <_>
      <maxWeakCount>14</maxWeakCount>
      <stageThreshold>-9.3702161312103271e-01</stageThreshold>
      <weakClassifiers>
        <_>
          <internalNodes>
            0 -1 232 -4.3055210262537003e-03</internalNodes>
          <leafValues>
            6.1506962776184082e-01 -1.9266055524349213e-01</leafValues></_>
        <_>
          <internalNodes>
            0 -1 100 -4.0669977664947510e-02</internalNodes>
          <leafValues>
            -8.3573698997497559e-01 2.1963305771350861e-01</leafValues></_>
        <_>
          <internalNodes>
            0 -1 328 -1.8603452481329441e-03</internalNodes>
          <leafValues>
            5.2952498197555542e-01 -2.3606356978416443e-01</leafValues></_>
        <_>
          <internalNodes>
            0 -1 133 -3.6286381073296070e-03</internalNodes>
          <leafValues>
            3.2830151915550232e-01 -3.1050416827201843e-01</leafValues></_>
        <_>
          <internalNodes>
            0 -1 321 -1.1206762865185738e-03</internalNodes>
          <leafValues>
            4.0192702412605286e-01 -2.9491484165191650e-01</leafValues></_>
        <_>
          <internalNodes>
            0 -1 239 6.4356939401477575e-04</internalNodes>
          <leafValues>
            -3.0303189158439636e-01 3.1633457541465759e-01</leafValues></_>
        <_>
          <internalNodes>
            0 -1 68 -5.4713326971977949e-04</internalNodes>
          <leafValues>
            3.0126678943634033e-01 -2.9534301161766052e-01</leafValues></_>
        <_>
          <internalNodes>
            0 -1 119 -7.6484866440296173e-03</internalNodes>
          <leafValues>
            1.1569605022668839e-01 -8.0298221111297607e-01</leafValues></_>
        <_>
          <internalNodes>
            0 -1 31 -1.5531036769971251e-03</internalNodes>
          <leafValues>
            4.5858025550842285e-01 -1.9747725129127502e-01</leafValues></_>
        <_>
          <internalNodes>
            0 -1 224 1.9454779103398323e-03</internalNodes>
          <leafValues>
            6.6562280058860779e-02 -8.9859849214553833e-01</leafValues></_>
        <_>
          <internalNodes>
            0 -1 165 -3.9468149770982563e-04</internalNodes>
          <leafValues>
            -4.0463057160377502e-01 1.8260380625724792e-01</leafValues></_>
        <_>
          <internalNodes>
            0 -1 147 -2.1489674691110849e-04</internalNodes>
          <leafValues>
            2.5800764560699463e-01 -2.9438981413841248e-01</leafValues></_>
        <_>
          <internalNodes>
            0 -1 187 8.3060520410072058e-05</internalNodes>
          <leafValues>
            -3.3485782146453857e-01 1.8234834074974060e-01</leafValues></_>
        <_>
          <internalNodes>
            0 -1 261 -5.7367538829566911e-05</internalNodes>
          <leafValues>
            3.1835970282554626e-01 -2.1686935424804688e-01</leafValues></_></weakClassifiers></_>
    <!-- stage 1 -->
    <_>
      <maxWeakCount>24</maxWeakCount>
      <stageThreshold>-9.4784134626388550e-01</stageThreshold>
      <weakClassifiers>
        <_>
          <internalNodes>
            0 -1 275 -1.7499242676422000e-04</internalNodes>
          <leafValues>
            4.9681979417800903e-01 -1.6956521570682526e-01</leafValues></_>
        <_>
          <internalNodes>
            0 -1 1 -1.3506222516298294e-02</internalNodes>
          <leafValues>
            3.8482353091239929e-01 -2.1324805915355682e-01</leafValues></_>
        <_>
          <internalNodes>
            0 -1 326 -4.0461862226948142e-04</internalNodes>
          <leafValues>
            3.0775323510169983e-01 -2.6510623097419739e-01</leafValues></_>
        <_>
          <internalNodes>
            0 -1 235 7.8493356704711914e-03</internalNodes>
          <leafValues>
            -1.8625646829605103e-01 4.4209131598472595e-01</leafValues></_>
        <_>
          <internalNodes>
            0 -1 208 -1.1385842226445675e-02</internalNodes>
          <leafValues>
            5.5990731716156006e-01 -1.6677825152873993e-01</leafValues></_>
        <_>
          <internalNodes>
            0 -1 72 -5.3120709955692291e-02</internalNodes>
          <leafValues>
            -7.0618879795074463e-01 1.2731793522834778e-01</leafValues></_>
        <_>
          <internalNodes>
            0 -1 98 -4.2997680604457855e-02</internalNodes>
          <leafValues>
            -7.6346355676651001e-01 8.8111810386180878e-02</leafValues></_>
        <_>
          <internalNodes>
            0 -1 114 -3.8754278793931007e-03</internalNodes>
          <leafValues>
            7.7000953257083893e-02 -8.2927364110946655e-01</leafValues></_>
        <_>
          <internalNodes>
            0 -1 303 -7.5702642789110541e-05</internalNodes>
          <leafValues>
            2.6936459541320801e-01 -2.5024434924125671e-01</leafValues></_>
        <_>
          <internalNodes>
            0 -1 197 -5.9471442364156246e-04</internalNodes>
          <leafValues>
            -4.2481753230094910e-01 1.5695846080780029e-01</leafValues></_>
        <_>
          <internalNodes>
            0 -1 81 -2.9149063630029559e-04</internalNodes>
          <leafValues>
            2.8010809421539307e-01 -2.3473268747329712e-01</leafValues></_>
        <_>
          <internalNodes>
            0 -1 29 -4.2538554407656193e-03</internalNodes>
          <leafValues>
            3.1306758522987366e-01 -1.9263246655464172e-01</leafValues></_>
        <_>
          <internalNodes>
            0 -1 5 2.4807589128613472e-02</internalNodes>
          <leafValues>
            -1.7435872554779053e-01 4.0269273519515991e-01</leafValues></_>
        <_>
          <internalNodes>
            0 -1 192 1.7484251875430346e-03</internalNodes>
          <leafValues>
            1.1431408673524857e-01 -7.2293829917907715e-01</leafValues></_>
        <_>
          <internalNodes>
            0 -1 309 9.7836682107299566e-04</internalNodes>
          <leafValues>
            8.2379803061485291e-02 -5.6908565759658813e-01</leafValues></_>
        <_>
          <internalNodes>
            0 -1 306 -3.3789351582527161e-03</internalNodes>
          <leafValues>
            3.0966955423355103e-01 -1.9451916217803955e-01</leafValues></_>
        <_>
          <internalNodes>
            0 -1 203 -8.2778558135032654e-04</internalNodes>
          <leafValues>
            -6.3208174705505371e-01 1.0562700033187866e-01</leafValues></_>
        <_>
          <internalNodes>
            0 -1 189 3.1116354512050748e-04</internalNodes>
          <leafValues>
            -3.1212583184242249e-01 1.9054496288299561e-01</leafValues></_>
        <_>
          <internalNodes>
            0 -1 127 6.5056001767516136e-04</internalNodes>
          <leafValues>
            -2.4184693396091461e-01 2.6030626893043518e-01</leafValues></_>
        <_>
          <internalNodes>
            0 -1 110 2.2201193496584892e-02</internalNodes>
          <leafValues>
            8.9938051998615265e-02 -6.6427308320999146e-01</leafValues></_>
        <_>
          <internalNodes>
            0 -1 164 -2.5341305881738663e-03</internalNodes>
          <leafValues>
            3.9883419871330261e-01 -1.6732032597064972e-01</leafValues></_>
        <_>
          <internalNodes>
            0 -1 318 -1.4667524374090135e-04</internalNodes>
          <leafValues>
            2.8098818659782410e-01 -2.2969003021717072e-01</leafValues></_>
        <_>
          <internalNodes>
            0 -1 277 9.0359419118613005e-04</internalNodes>
          <leafValues>
            7.7958680689334869e-02 -7.6695770025253296e-01</leafValues></_>
        <_>
          <internalNodes>
            0 -1 140 8.4390424191951752e-02</internalNodes>
          <leafValues>
            -9.2422939836978912e-02 6.2987262010574341e-01</leafValues></_></weakClassifiers></_>
    <!-- stage 2 -->
    <_>
      <maxWeakCount>29</maxWeakCount>
      <stageThreshold>-8.7614977359771729e-01</stageThreshold>
      <weakClassifiers>
        <_>
          <internalNodes>
            0 -1 264 -2.6306468062102795e-03</internalNodes>
          <leafValues>
            4.1356933116912842e-01 -4.2222222685813904e-01</leafValues></_>
        <_>
          <internalNodes>
            0 -1 316 -6.4635532908141613e-05</internalNodes>
          <leafValues>
            3.5435652732849121e-01 -1.9934137165546417e-01</leafValues></_>
        <_>
          <internalNodes>
            0 -1 300 -9.5761520788073540e-04</internalNodes>
          <leafValues>
            2.7063345909118652e-01 -2.4827630817890167e-01</leafValues></_>
        <_>
          <internalNodes>
            0 -1 304 -1.3958313502371311e-04</internalNodes>
          <leafValues>
            2.6581361889839172e-01 -2.5663399696350098e-01</leafValues></_>
        <_>
          <internalNodes>
            0 -1 252 -2.1115460549481213e-04</internalNodes>
          <leafValues>
            -6.8671548366546631e-01 6.9359794259071350e-02</leafValues></_>
        <_>
          <internalNodes>
            0 -1 101 -4.7286417335271835e-02</internalNodes>
          <leafValues>
            -7.2094500064849854e-01 7.8483648598194122e-02</leafValues></_>
        <_>
          <internalNodes>
            0 -1 160 3.2872925512492657e-03</internalNodes>
          <leafValues>
            5.3254786878824234e-02 -7.8188121318817139e-01</leafValues></_>
        <_>
          <internalNodes>
            0 -1 172 -8.9719984680414200e-04</internalNodes>
          <leafValues>
            -7.1440142393112183e-01 6.0984261333942413e-02</leafValues></_>
        <_>
          <internalNodes>
            0 -1 23 -5.7211546227335930e-03</internalNodes>
          <leafValues>
            3.3401817083358765e-01 -1.6558198630809784e-01</leafValues></_>
        <_>
          <internalNodes>
            0 -1 212 6.1233190353959799e-04</internalNodes>
          <leafValues>
            -2.9562976956367493e-01 1.9730927050113678e-01</leafValues></_>
        <_>
          <internalNodes>
            0 -1 0 7.0485055446624756e-02</internalNodes>
          <leafValues>
            -1.0750204324722290e-01 4.4862252473831177e-01</leafValues></_>
        <_>
          <internalNodes>
            0 -1 94 -9.0823546051979065e-03</internalNodes>
          <leafValues>
            2.6372477412223816e-01 -2.4637985229492188e-01</leafValues></_>
        <_>
          <internalNodes>
            0 -1 217 -1.2952613178640604e-03</internalNodes>
          <leafValues>
            3.8577717542648315e-01 -1.4179554581642151e-01</leafValues></_>
        <_>
          <internalNodes>
            0 -1 145 -6.2471018172800541e-03</internalNodes>
          <leafValues>
            3.4062886238098145e-01 -1.5503542125225067e-01</leafValues></_>
        <_>
          <internalNodes>
            0 -1 108 -1.9153812900185585e-04</internalNodes>
          <leafValues>
            2.6984387636184692e-01 -2.6049464941024780e-01</leafValues></_>
        <_>
          <internalNodes>
            0 -1 28 6.6384702920913696e-02</internalNodes>
          <leafValues>
            6.2350749969482422e-02 -7.1354150772094727e-01</leafValues></_>
        <_>
          <internalNodes>
            0 -1 122 4.3729930184781551e-03</internalNodes>
          <leafValues>
            -2.6528084278106689e-01 2.3644064366817474e-01</leafValues></_>
        <_>
          <internalNodes>
            0 -1 158 -8.2386910915374756e-02</internalNodes>
          <leafValues>
            -6.2722325325012207e-01 8.7322421371936798e-02</leafValues></_>
        <_>
          <internalNodes>
            0 -1 136 2.7623993810266256e-03</internalNodes>
          <leafValues>
            1.0003294050693512e-01 -4.2465144395828247e-01</leafValues></_>
        <_>
          <internalNodes>
            0 -1 123 -6.9191330112516880e-03</internalNodes>
          <leafValues>
            -6.8903696537017822e-01 6.9051183760166168e-02</leafValues></_>
        <_>
          <internalNodes>
            0 -1 37 -3.2452284358441830e-03</internalNodes>
          <leafValues>
            3.3052065968513489e-01 -1.7267440259456635e-01</leafValues></_>
        <_>
          <internalNodes>
            0 -1 80 -8.6136351455934346e-05</internalNodes>
          <leafValues>
            2.2155456244945526e-01 -1.9252772629261017e-01</leafValues></_>
        <_>
          <internalNodes>
            0 -1 314 -5.7105495216092095e-05</internalNodes>
          <leafValues>
            2.2656644880771637e-01 -2.0669563114643097e-01</leafValues></_>
        <_>
          <internalNodes>
            0 -1 168 3.8004175294190645e-03</internalNodes>
          <leafValues>
            -1.3275718688964844e-01 3.8813760876655579e-01</leafValues></_>
        <_>
          <internalNodes>
            0 -1 141 1.2176253949292004e-04</internalNodes>
          <leafValues>
            -2.0246320962905884e-01 2.5807139277458191e-01</leafValues></_>
        <_>
          <internalNodes>
            0 -1 88 -2.1741644013673067e-03</internalNodes>
          <leafValues>
            -8.0924475193023682e-01 6.3942246139049530e-02</leafValues></_>
        <_>
          <internalNodes>
            0 -1 331 -5.9487402904778719e-04</internalNodes>
          <leafValues>
            2.4511915445327759e-01 -1.9316919147968292e-01</leafValues></_>
        <_>
          <internalNodes>
            0 -1 247 3.5705773625522852e-03</internalNodes>
          <leafValues>
            -1.6179908812046051e-01 3.5578975081443787e-01</leafValues></_>
        <_>
          <internalNodes>
            0 -1 283 1.0407043155282736e-03</internalNodes>
          <leafValues>
            1.0459069162607193e-01 -5.7611250877380371e-01</leafValues></_></weakClassifiers></_>
    <!-- stage 3 -->
    <_>
      <maxWeakCount>32</maxWeakCount>
      <stageThreshold>-8.2111567258834839e-01</stageThreshold>
      <weakClassifiers>
        <_>
          <internalNodes>
            0 -1 265 -3.3716514008119702e-04</internalNodes>
          <leafValues>
            -6.8361580371856689e-01 3.8371115922927856e-01</leafValues></_>
        <_>
          <internalNodes>
            0 -1 313 -6.2278856057673693e-04</internalNodes>
          <leafValues>
            2.6518329977989197e-01 -2.3292936384677887e-01</leafValues></_>
        <_>
          <internalNodes>
            0 -1 93 1.3647760264575481e-02</internalNodes>
          <leafValues>
            -1.1153704673051834e-01 5.5343073606491089e-01</leafValues></_>
        <_>
          <internalNodes>
            0 -1 310 1.8566270591691136e-03</internalNodes>
          <leafValues>
            -1.9249165058135986e-01 2.7307078242301941e-01</leafValues></_>
        <_>
          <internalNodes>
            0 -1 129 -3.7166681140661240e-03</internalNodes>
          <leafValues>
            4.1444531083106995e-01 -8.8665798306465149e-02</leafValues></_>
        <_>
          <internalNodes>
            0 -1 25 -4.9571054987609386e-03</internalNodes>
          <leafValues>
            2.4893425405025482e-01 -2.1135158836841583e-01</leafValues></_>
        <_>
          <internalNodes>
            0 -1 269 -3.1748157925903797e-04</internalNodes>
          <leafValues>
            -7.1717119216918945e-01 6.1718005686998367e-02</leafValues></_>
        <_>
          <internalNodes>
            0 -1 39 3.6816904321312904e-03</internalNodes>
          <leafValues>
            -1.0679641366004944e-01 3.9937594532966614e-01</leafValues></_>
        <_>
          <internalNodes>
            0 -1 86 3.6963257938623428e-02</internalNodes>
          <leafValues>
            6.7801177501678467e-02 -7.3624509572982788e-01</leafValues></_>
        <_>
          <internalNodes>
            0 -1 153 3.6926325992681086e-04</internalNodes>
          <leafValues>
            -2.7191758155822754e-01 1.6787518560886383e-01</leafValues></_>
        <_>
          <internalNodes>
            0 -1 171 6.5104558598250151e-04</internalNodes>
          <leafValues>
            -1.9416519999504089e-01 2.3890504240989685e-01</leafValues></_>
        <_>
          <internalNodes>
            0 -1 330 -6.7768749431706965e-05</internalNodes>
          <leafValues>
            2.4153208732604980e-01 -1.9684472680091858e-01</leafValues></_>
        <_>
          <internalNodes>
            0 -1 263 -2.3110059555619955e-04</internalNodes>
          <leafValues>
            -6.2616097927093506e-01 7.6508373022079468e-02</leafValues></_>
        <_>
          <internalNodes>
            0 -1 56 4.3745718896389008e-02</internalNodes>
          <leafValues>
            -9.6604973077774048e-02 5.3390240669250488e-01</leafValues></_>
        <_>
          <internalNodes>
            0 -1 299 7.4447435326874256e-04</internalNodes>
          <leafValues>
            1.0565746575593948e-01 -4.5870757102966309e-01</leafValues></_>
        <_>
          <internalNodes>
            0 -1 109 -6.0799615457653999e-03</internalNodes>
          <leafValues>
            4.3210372328758240e-01 -1.1110105365514755e-01</leafValues></_>
        <_>
          <internalNodes>
            0 -1 204 4.7269706556107849e-05</internalNodes>
          <leafValues>
            -2.1171076595783234e-01 1.9882099330425262e-01</leafValues></_>
        <_>
          <internalNodes>
            0 -1 87 1.0869295801967382e-03</internalNodes>
          <leafValues>
            8.5211910307407379e-02 -5.2217900753021240e-01</leafValues></_>
        <_>
          <internalNodes>
            0 -1 340 -1.1684383935062215e-04</internalNodes>
          <leafValues>
            2.5838291645050049e-01 -1.7648589611053467e-01</leafValues></_>
        <_>
          <internalNodes>
            0 -1 64 1.9386157393455505e-02</internalNodes>
          <leafValues>
            1.1656988412141800e-01 -3.9643904566764832e-01</leafValues></_>
        <_>
          <internalNodes>
            0 -1 230 -1.1834688484668732e-03</internalNodes>
          <leafValues>
            6.1283558607101440e-02 -6.6973948478698730e-01</leafValues></_>
        <_>
          <internalNodes>
            0 -1 102 -8.2147985696792603e-02</internalNodes>
          <leafValues>
            -8.3222097158432007e-01 4.3735049664974213e-02</leafValues></_>
        <_>
          <internalNodes>
            0 -1 55 -9.6771167591214180e-03</internalNodes>
          <leafValues>
            -7.1858340501785278e-01 5.0779987126588821e-02</leafValues></_>
        <_>
          <internalNodes>
            0 -1 284 4.7371294931508601e-04</internalNodes>
          <leafValues>
            5.3478647023439407e-02 -7.1047562360763550e-01</leafValues></_>
        <_>
          <internalNodes>
            0 -1 296 -5.4635776905342937e-05</internalNodes>
          <leafValues>
            2.1214523911476135e-01 -2.1351602673530579e-01</leafValues></_>
        <_>
          <internalNodes>
            0 -1 236 1.0641166940331459e-02</internalNodes>
          <leafValues>
            -1.0917206108570099e-01 3.9764076471328735e-01</leafValues></_>
        <_>
          <internalNodes>
            0 -1 270 -5.1241591572761536e-03</internalNodes>
          <leafValues>
            5.4818844795227051e-01 -8.2513317465782166e-02</leafValues></_>
        <_>
          <internalNodes>
            0 -1 268 -4.4738664291799068e-04</internalNodes>
          <leafValues>
            -8.4349811077117920e-01 5.8270998299121857e-02</leafValues></_>
        <_>
          <internalNodes>
            0 -1 92 1.7215306870639324e-03</internalNodes>
          <leafValues>
            -1.2448695302009583e-01 3.5547631978988647e-01</leafValues></_>
        <_>
          <internalNodes>
            0 -1 125 -9.9536532070487738e-04</internalNodes>
          <leafValues>
            -4.8747879266738892e-01 8.5447125136852264e-02</leafValues></_>
        <_>
          <internalNodes>
            0 -1 174 8.9714907517191023e-05</internalNodes>
          <leafValues>
            -1.8878461420536041e-01 2.2470511496067047e-01</leafValues></_>
        <_>
          <internalNodes>
            0 -1 154 6.2289815396070480e-03</internalNodes>
          <leafValues>
            7.6240710914134979e-02 -5.9269171953201294e-01</leafValues></_></weakClassifiers></_>
    <!-- stage 4 -->
    <_>
      <maxWeakCount>39</maxWeakCount>
      <stageThreshold>-8.4708833694458008e-01</stageThreshold>
      <weakClassifiers>
        <_>
          <internalNodes>
            0 -1 292 -2.9718046425841749e-04</internalNodes>
          <leafValues>
            5.4448014497756958e-01 1.2420382350683212e-01</leafValues></_>
        <_>
          <internalNodes>
            0 -1 287 -9.5339841209352016e-05</internalNodes>
          <leafValues>
            2.4338108301162720e-01 -2.3953813314437866e-01</leafValues></_>
        <_>
          <internalNodes>
            0 -1 15 3.7611424922943115e-03</internalNodes>
          <leafValues>
            -1.1718159914016724e-01 4.7333237528800964e-01</leafValues></_>
        <_>
          <internalNodes>
            0 -1 134 3.6959722638130188e-03</internalNodes>
          <leafValues>
            2.2851688787341118e-02 -6.7485970258712769e-01</leafValues></_>
        <_>
          <internalNodes>
            0 -1 226 1.6913593281060457e-03</internalNodes>
          <leafValues>
            8.4066122770309448e-02 -6.7104285955429077e-01</leafValues></_>
        <_>
          <internalNodes>
            0 -1 255 -2.0516576478257775e-04</internalNodes>
          <leafValues>
            1.6556303203105927e-01 -2.4123276770114899e-01</leafValues></_>
        <_>
          <internalNodes>
            0 -1 253 -6.0900002717971802e-03</internalNodes>
          <leafValues>
            5.1257205009460449e-01 -8.8297218084335327e-02</leafValues></_>
        <_>
          <internalNodes>
            0 -1 142 3.5448180278763175e-04</internalNodes>
          <leafValues>
            -2.1096247434616089e-01 2.1994407474994659e-01</leafValues></_>
        <_>
          <internalNodes>
            0 -1 44 -9.2399306595325470e-04</internalNodes>
          <leafValues>
            3.1698814034461975e-01 -1.4081865549087524e-01</leafValues></_>
        <_>
          <internalNodes>
            0 -1 53 -2.0395712926983833e-03</internalNodes>
          <leafValues>
            2.5670629739761353e-01 -1.5727572143077850e-01</leafValues></_>
        <_>
          <internalNodes>
            0 -1 254 -7.0907955523580313e-04</internalNodes>
          <leafValues>
            -7.1198648214340210e-01 5.8920316398143768e-02</leafValues></_>
        <_>
          <internalNodes>
            0 -1 260 -1.5666249673813581e-03</internalNodes>
          <leafValues>
            3.6020442843437195e-01 -1.1966565251350403e-01</leafValues></_>
        <_>
          <internalNodes>
            0 -1 259 1.4089092146605253e-03</internalNodes>
          <leafValues>
            -1.1227718740701675e-01 3.9424514770507812e-01</leafValues></_>
        <_>
          <internalNodes>
            0 -1 196 -1.0929761920124292e-03</internalNodes>
          <leafValues>
            -5.9208655357360840e-01 8.0156527459621429e-02</leafValues></_>
        <_>
          <internalNodes>
            0 -1 285 -2.0189443603157997e-04</internalNodes>
          <leafValues>
            1.9821649789810181e-01 -1.9857119023799896e-01</leafValues></_>
        <_>
          <internalNodes>
            0 -1 104 -8.8450387120246887e-02</internalNodes>
          <leafValues>
            -7.4964630603790283e-01 5.6017726659774780e-02</leafValues></_>
        <_>
          <internalNodes>
            0 -1 132 1.3843325898051262e-02</internalNodes>
          <leafValues>
            -1.0730122029781342e-01 4.2458131909370422e-01</leafValues></_>
        <_>
          <internalNodes>
            0 -1 320 -3.2201322028413415e-04</internalNodes>
          <leafValues>
            2.2700257599353790e-01 -2.0808885991573334e-01</leafValues></_>
        <_>
          <internalNodes>
            0 -1 202 3.7318465183489025e-04</internalNodes>
          <leafValues>
            5.7206250727176666e-02 -7.1946805715560913e-01</leafValues></_>
        <_>
          <internalNodes>
            0 -1 157 1.5415536472573876e-04</internalNodes>
          <leafValues>
            -2.7837032079696655e-01 1.3915044069290161e-01</leafValues></_>
        <_>
          <internalNodes>
            0 -1 220 -1.5001758583821356e-04</internalNodes>
          <leafValues>
            2.8951591253280640e-01 -1.4849393069744110e-01</leafValues></_>
        <_>
          <internalNodes>
            0 -1 251 3.3987476490437984e-04</internalNodes>
          <leafValues>
            5.2814736962318420e-02 -7.1974992752075195e-01</leafValues></_>
        <_>
          <internalNodes>
            0 -1 107 -1.7693841829895973e-02</internalNodes>
          <leafValues>
            5.4706364870071411e-01 -8.9794717729091644e-02</leafValues></_>
        <_>
          <internalNodes>
            0 -1 148 -4.1071805753745139e-05</internalNodes>
          <leafValues>
            2.2632905840873718e-01 -2.0350523293018341e-01</leafValues></_>
        <_>
          <internalNodes>
            0 -1 89 -1.5543660265393555e-04</internalNodes>
          <leafValues>
            2.4267172813415527e-01 -1.6064526140689850e-01</leafValues></_>
        <_>
          <internalNodes>
            0 -1 124 1.1150629725307226e-03</internalNodes>
          <leafValues>
            1.3217957317829132e-01 -2.8993999958038330e-01</leafValues></_>
        <_>
          <internalNodes>
            0 -1 246 6.3108862377703190e-03</internalNodes>
          <leafValues>
            5.8203916996717453e-02 -6.3039714097976685e-01</leafValues></_>
        <_>
          <internalNodes>
            0 -1 338 -1.1069775791838765e-04</internalNodes>
          <leafValues>
            2.1592403948307037e-01 -1.7936196923255920e-01</leafValues></_>
        <_>
          <internalNodes>
            0 -1 79 -4.6942118206061423e-04</internalNodes>
          <leafValues>
            2.1672581136226654e-01 -1.9654819369316101e-01</leafValues></_>
        <_>
          <internalNodes>
            0 -1 43 -6.8418104201555252e-03</internalNodes>
          <leafValues>
            3.7589073181152344e-01 -1.0910094529390335e-01</leafValues></_>
        <_>
          <internalNodes>
            0 -1 35 -1.1730233207345009e-02</internalNodes>
          <leafValues>
            -7.3849505186080933e-01 5.5996168404817581e-02</leafValues></_>
        <_>
          <internalNodes>
            0 -1 168 5.2177463658154011e-03</internalNodes>
          <leafValues>
            -9.9425002932548523e-02 4.4092983007431030e-01</leafValues></_>
        <_>
          <internalNodes>
            0 -1 143 -2.9361483757384121e-04</internalNodes>
          <leafValues>
            -6.5098023414611816e-01 6.9815397262573242e-02</leafValues></_>
        <_>
          <internalNodes>
            0 -1 34 1.8174698576331139e-02</internalNodes>
          <leafValues>
            -9.3199059367179871e-02 4.7152474522590637e-01</leafValues></_>
        <_>
          <internalNodes>
            0 -1 250 -1.5998960589058697e-04</internalNodes>
          <leafValues>
            -4.4691529870033264e-01 8.8532269001007080e-02</leafValues></_>
        <_>
          <internalNodes>
            0 -1 336 -3.5296549322083592e-04</internalNodes>
          <leafValues>
            2.3315660655498505e-01 -1.7126721143722534e-01</leafValues></_>
        <_>
          <internalNodes>
            0 -1 335 -2.8932043351233006e-03</internalNodes>
          <leafValues>
            3.7564185261726379e-01 -1.3075594604015350e-01</leafValues></_>
        <_>
          <internalNodes>
            0 -1 159 5.4690511897206306e-03</internalNodes>
          <leafValues>
            8.2651056349277496e-02 -5.1842194795608521e-01</leafValues></_>
        <_>
          <internalNodes>
            0 -1 126 2.2024288773536682e-04</internalNodes>
          <leafValues>
            -1.7463266849517822e-01 2.8080442547798157e-01</leafValues></_></weakClassifiers></_>
    <!-- stage 5 -->
    <_>
      <maxWeakCount>38</maxWeakCount>
      <stageThreshold>-8.1339991092681885e-01</stageThreshold>
      <weakClassifiers>
        <_>
          <internalNodes>
            0 -1 223 2.2066370584070683e-03</internalNodes>
          <leafValues>
            1.1612903326749802e-01 5.4708993434906006e-01</leafValues></_>
        <_>
          <internalNodes>
            0 -1 177 -4.6039680019021034e-03</internalNodes>
          <leafValues>
            3.2900947332382202e-01 -1.6898882389068604e-01</leafValues></_>
        <_>
          <internalNodes>
            0 -1 7 2.2311890497803688e-02</internalNodes>
          <leafValues>
            -9.1270126402378082e-02 6.0275661945343018e-01</leafValues></_>
        <_>
          <internalNodes>
            0 -1 33 3.6613553762435913e-02</internalNodes>
          <leafValues>
            -1.4486235380172729e-01 3.8779598474502563e-01</leafValues></_>
        <_>
          <internalNodes>
            0 -1 173 -2.7652038261294365e-04</internalNodes>
          <leafValues>
            -6.3512623310089111e-01 8.7332464754581451e-02</leafValues></_>
        <_>
          <internalNodes>
            0 -1 294 9.0724509209394455e-04</internalNodes>
          <leafValues>
            5.1973693072795868e-02 -8.2633405923843384e-01</leafValues></_>
        <_>
          <internalNodes>
            0 -1 182 3.4107551909983158e-03</internalNodes>
          <leafValues>
            -2.1210439503192902e-01 1.8847848474979401e-01</leafValues></_>
        <_>
          <internalNodes>
            0 -1 135 3.1690543983131647e-03</internalNodes>
          <leafValues>
            -1.4189559221267700e-01 2.6303151249885559e-01</leafValues></_>
        <_>
          <internalNodes>
            0 -1 193 1.7813639715313911e-03</internalNodes>
          <leafValues>
            5.9966076165437698e-02 -5.5730682611465454e-01</leafValues></_>
        <_>
          <internalNodes>
            0 -1 166 2.8868619119748473e-04</internalNodes>
          <leafValues>
            -2.3171246051788330e-01 1.5709435939788818e-01</leafValues></_>
        <_>
          <internalNodes>
            0 -1 181 1.9357273122295737e-03</internalNodes>
          <leafValues>
            -1.2388867139816284e-01 3.2579764723777771e-01</leafValues></_>
        <_>
          <internalNodes>
            0 -1 225 1.1118729598820210e-03</internalNodes>
          <leafValues>
            5.8018516749143600e-02 -6.2011492252349854e-01</leafValues></_>
        <_>
          <internalNodes>
            0 -1 137 5.7072867639362812e-03</internalNodes>
          <leafValues>
            -9.7882933914661407e-02 4.0313085913658142e-01</leafValues></_>
        <_>
          <internalNodes>
            0 -1 242 -5.8939756127074361e-04</internalNodes>
          <leafValues>
            3.0209118127822876e-01 -1.4110077917575836e-01</leafValues></_>
        <_>
          <internalNodes>
            0 -1 54 -4.8850721213966608e-04</internalNodes>
          <leafValues>
            2.0224043726921082e-01 -1.7501397430896759e-01</leafValues></_>
        <_>
          <internalNodes>
            0 -1 112 1.6210684552788734e-03</internalNodes>
          <leafValues>
            6.7993998527526855e-02 -4.8489850759506226e-01</leafValues></_>
        <_>
          <internalNodes>
            0 -1 281 -2.0281262695789337e-03</internalNodes>
          <leafValues>
            2.7521014213562012e-01 -1.2769953906536102e-01</leafValues></_>
        <_>
          <internalNodes>
            0 -1 334 -6.9948764576110989e-05</internalNodes>
          <leafValues>
            2.1030297875404358e-01 -1.7635728418827057e-01</leafValues></_>
        <_>
          <internalNodes>
            0 -1 332 -9.1114910901524127e-05</internalNodes>
          <leafValues>
            2.1659672260284424e-01 -1.6219484806060791e-01</leafValues></_>
        <_>
          <internalNodes>
            0 -1 238 5.0499720964580774e-04</internalNodes>
          <leafValues>
            -2.4298015236854553e-01 1.5605787932872772e-01</leafValues></_>
        <_>
          <internalNodes>
            0 -1 222 -1.6499627963639796e-04</internalNodes>
          <leafValues>
            2.4625030159950256e-01 -1.6611629724502563e-01</leafValues></_>
        <_>
          <internalNodes>
            0 -1 149 -1.9461054354906082e-02</internalNodes>
          <leafValues>
            4.2149230837821960e-01 -9.3874655663967133e-02</leafValues></_>
        <_>
          <internalNodes>
            0 -1 156 -7.7739264816045761e-04</internalNodes>
          <leafValues>
            5.6633397936820984e-02 -7.6805031299591064e-01</leafValues></_>
        <_>
          <internalNodes>
            0 -1 75 1.1578223202377558e-03</internalNodes>
          <leafValues>
            -8.8456548750400543e-02 4.8399150371551514e-01</leafValues></_>
        <_>
          <internalNodes>
            0 -1 249 1.1567384935915470e-03</internalNodes>
          <leafValues>
            -1.1166410148143768e-01 3.0348157882690430e-01</leafValues></_>
        <_>
          <internalNodes>
            0 -1 243 -2.5873966515064240e-03</internalNodes>
          <leafValues>
            -6.1189782619476318e-01 6.8967461585998535e-02</leafValues></_>
        <_>
          <internalNodes>
            0 -1 96 2.1611460397252813e-05</internalNodes>
          <leafValues>
            1.3904520869255066e-01 -2.7419492602348328e-01</leafValues></_>
        <_>
          <internalNodes>
            0 -1 188 2.6304099708795547e-02</internalNodes>
          <leafValues>
            5.5565237998962402e-02 -7.2250145673751831e-01</leafValues></_>
        <_>
          <internalNodes>
            0 -1 20 -2.4177995510399342e-03</internalNodes>
          <leafValues>
            2.6303163170814514e-01 -1.4396528899669647e-01</leafValues></_>
        <_>
          <internalNodes>
            0 -1 36 -4.2185755446553230e-03</internalNodes>
          <leafValues>
            3.0622747540473938e-01 -1.2756592035293579e-01</leafValues></_>
        <_>
          <internalNodes>
            0 -1 51 -1.3524882961064577e-03</internalNodes>
          <leafValues>
            -7.0031046867370605e-01 5.9676792472600937e-02</leafValues></_>
        <_>
          <internalNodes>
            0 -1 73 -4.6996872697491199e-05</internalNodes>
          <leafValues>
            1.8553000688552856e-01 -1.9223208725452423e-01</leafValues></_>
        <_>
          <internalNodes>
            0 -1 11 -2.0977688953280449e-02</internalNodes>
          <leafValues>
            -6.0721430927515030e-02 5.7554537057876587e-01</leafValues></_>
        <_>
          <internalNodes>
            0 -1 38 -1.0109555721282959e-01</internalNodes>
          <leafValues>
            -5.2813595533370972e-01 7.4338302016258240e-02</leafValues></_>
        <_>
          <internalNodes>
            0 -1 280 -1.6621468588709831e-02</internalNodes>
          <leafValues>
            4.3206828832626343e-01 -9.8741307854652405e-02</leafValues></_>
        <_>
          <internalNodes>
            0 -1 146 2.2225875407457352e-02</internalNodes>
          <leafValues>
            -7.1353107690811157e-02 5.0478661060333252e-01</leafValues></_>
        <_>
          <internalNodes>
            0 -1 231 6.0118543915450573e-03</internalNodes>
          <leafValues>
            6.7805998027324677e-02 -6.1938035488128662e-01</leafValues></_>
        <_>
          <internalNodes>
            0 -1 337 -4.0932701085694134e-04</internalNodes>
          <leafValues>
            2.2950263321399689e-01 -1.7953179776668549e-01</leafValues></_></weakClassifiers></_>
    <!-- stage 6 -->
    <_>
      <maxWeakCount>42</maxWeakCount>
      <stageThreshold>-7.4787646532058716e-01</stageThreshold>
      <weakClassifiers>
        <_>
          <internalNodes>
            0 -1 161 2.7510235086083412e-03</internalNodes>
          <leafValues>
            9.1358028352260590e-02 5.1737087965011597e-01</leafValues></_>
        <_>
          <internalNodes>
            0 -1 84 -7.8560027759522200e-04</internalNodes>
          <leafValues>
            2.3171059787273407e-01 -1.8930359184741974e-01</leafValues></_>
        <_>
          <internalNodes>
            0 -1 139 -1.1900812387466431e-03</internalNodes>
          <leafValues>
            -6.4656531810760498e-01 6.1868950724601746e-02</leafValues></_>
        <_>
          <internalNodes>
            0 -1 286 -3.0308283749036491e-04</internalNodes>
          <leafValues>
            -6.4610826969146729e-01 4.6883746981620789e-02</leafValues></_>
        <_>
          <internalNodes>
            0 -1 17 2.5886171497404575e-03</internalNodes>
          <leafValues>
            -1.0987423360347748e-01 3.4608376026153564e-01</leafValues></_>
        <_>
          <internalNodes>
            0 -1 216 9.8315021023154259e-04</internalNodes>
          <leafValues>
            -2.3073235154151917e-01 1.5534955263137817e-01</leafValues></_>
        <_>
          <internalNodes>
            0 -1 120 1.6785554587841034e-02</internalNodes>
          <leafValues>
            5.7174526154994965e-02 -5.6003993749618530e-01</leafValues></_>
        <_>
          <internalNodes>
            0 -1 198 4.8563577001914382e-04</internalNodes>
          <leafValues>
            -2.4324305355548859e-01 1.7275051772594452e-01</leafValues></_>
        <_>
          <internalNodes>
            0 -1 46 9.9033815786242485e-04</internalNodes>
          <leafValues>
            1.6461670398712158e-01 -2.2484821081161499e-01</leafValues></_>
        <_>
          <internalNodes>
            0 -1 26 -1.4816138427704573e-03</internalNodes>
          <leafValues>
            2.4461652338504791e-01 -1.4342224597930908e-01</leafValues></_>
        <_>
          <internalNodes>
            0 -1 70 -2.4268086999654770e-03</internalNodes>
          <leafValues>
            7.0710368454456329e-02 -5.3599441051483154e-01</leafValues></_>
        <_>
          <internalNodes>
            0 -1 318 -1.8878155970014632e-04</internalNodes>
          <leafValues>
            2.0730422437191010e-01 -1.6827040910720825e-01</leafValues></_>
        <_>
          <internalNodes>
            0 -1 302 -1.6100064385682344e-04</internalNodes>
          <leafValues>
            2.2640097141265869e-01 -1.7103493213653564e-01</leafValues></_>
        <_>
          <internalNodes>
            0 -1 211 2.2119735367596149e-03</internalNodes>
          <leafValues>
            -7.3130816221237183e-02 5.1110351085662842e-01</leafValues></_>
        <_>
          <internalNodes>
            0 -1 265 -1.9067685934714973e-04</internalNodes>
          <leafValues>
            -5.5831331014633179e-01 7.2711817920207977e-02</leafValues></_>
        <_>
          <internalNodes>
            0 -1 48 3.8476618938148022e-03</internalNodes>
          <leafValues>
            -9.4606839120388031e-02 3.9656785130500793e-01</leafValues></_>
        <_>
          <internalNodes>
            0 -1 170 4.9437838606536388e-04</internalNodes>
          <leafValues>
            -1.5403969585895538e-01 2.4252749979496002e-01</leafValues></_>
        <_>
          <internalNodes>
            0 -1 167 1.1914842762053013e-03</internalNodes>
          <leafValues>
            -1.6943559050559998e-01 3.0677130818367004e-01</leafValues></_>
        <_>
          <internalNodes>
            0 -1 293 -2.6550707843853161e-05</internalNodes>
          <leafValues>
            1.9161856174468994e-01 -2.3376396298408508e-01</leafValues></_>
        <_>
          <internalNodes>
            0 -1 113 -4.4268155470490456e-03</internalNodes>
          <leafValues>
            -4.2134368419647217e-01 9.4481945037841797e-02</leafValues></_>
        <_>
          <internalNodes>
            0 -1 258 3.3220103941857815e-03</internalNodes>
          <leafValues>
            8.4070786833763123e-02 -4.0961641073226929e-01</leafValues></_>
        <_>
          <internalNodes>
            0 -1 184 -1.4048202428966761e-03</internalNodes>
          <leafValues>
            3.9501059055328369e-01 -9.7333669662475586e-02</leafValues></_>
        <_>
          <internalNodes>
            0 -1 317 2.6201922446489334e-04</internalNodes>
          <leafValues>
            8.2097224891185760e-02 -4.7037711739540100e-01</leafValues></_>
        <_>
          <internalNodes>
            0 -1 311 6.1953527620062232e-04</internalNodes>
          <leafValues>
            6.7007891833782196e-02 -5.0506114959716797e-01</leafValues></_>
        <_>
          <internalNodes>
            0 -1 183 1.2428180780261755e-03</internalNodes>
          <leafValues>
            -9.5035880804061890e-02 4.1829156875610352e-01</leafValues></_>
        <_>
          <internalNodes>
            0 -1 32 -8.7163429707288742e-03</internalNodes>
          <leafValues>
            -6.2696987390518188e-01 6.3882216811180115e-02</leafValues></_>
        <_>
          <internalNodes>
            0 -1 105 8.1526051508262753e-04</internalNodes>
          <leafValues>
            -1.8849720060825348e-01 1.8682581186294556e-01</leafValues></_>
        <_>
          <internalNodes>
            0 -1 191 8.2383828703314066e-04</internalNodes>
          <leafValues>
            7.7326603233814240e-02 -4.5532062649726868e-01</leafValues></_>
        <_>
          <internalNodes>
            0 -1 339 4.6198521158657968e-04</internalNodes>
          <leafValues>
            -1.5154047310352325e-01 2.2584117949008942e-01</leafValues></_>
        <_>
          <internalNodes>
            0 -1 307 -4.1417931788600981e-04</internalNodes>
          <leafValues>
            2.2275421023368835e-01 -1.5076023340225220e-01</leafValues></_>
        <_>
          <internalNodes>
            0 -1 61 2.1101431921124458e-03</internalNodes>
          <leafValues>
            8.5982881486415863e-02 -3.8783082365989685e-01</leafValues></_>
        <_>
          <internalNodes>
            0 -1 63 -6.6172343213111162e-04</internalNodes>
          <leafValues>
            3.4823524951934814e-01 -9.7180001437664032e-02</leafValues></_>
        <_>
          <internalNodes>
            0 -1 99 1.5198162756860256e-02</internalNodes>
          <leafValues>
            7.0696361362934113e-02 -4.9037048220634460e-01</leafValues></_>
        <_>
          <internalNodes>
            0 -1 279 -6.3161680009216070e-04</internalNodes>
          <leafValues>
            2.6535651087760925e-01 -1.2898743152618408e-01</leafValues></_>
        <_>
          <internalNodes>
            0 -1 176 7.0027454057708383e-05</internalNodes>
          <leafValues>
            1.0782584547996521e-01 -3.1816947460174561e-01</leafValues></_>
        <_>
          <internalNodes>
            0 -1 121 -7.1978792548179626e-03</internalNodes>
          <leafValues>
            4.0915420651435852e-01 -8.7377816438674927e-02</leafValues></_>
        <_>
          <internalNodes>
            0 -1 116 4.2998134158551693e-03</internalNodes>
          <leafValues>
            1.3690060377120972e-01 -2.7489337325096130e-01</leafValues></_>
        <_>
          <internalNodes>
            0 -1 162 -2.3773517459630966e-03</internalNodes>
          <leafValues>
            -5.6040501594543457e-01 6.1751924455165863e-02</leafValues></_>
        <_>
          <internalNodes>
            0 -1 308 -2.8677587397396564e-03</internalNodes>
          <leafValues>
            -5.4211747646331787e-01 5.9852614998817444e-02</leafValues></_>
        <_>
          <internalNodes>
            0 -1 21 3.1181129161268473e-03</internalNodes>
          <leafValues>
            -6.9522760808467865e-02 5.3358995914459229e-01</leafValues></_>
        <_>
          <internalNodes>
            0 -1 274 -7.7604658144991845e-05</internalNodes>
          <leafValues>
            2.3677487671375275e-01 -1.4505724608898163e-01</leafValues></_>
        <_>
          <internalNodes>
            0 -1 236 6.3013201579451561e-03</internalNodes>
          <leafValues>
            -1.3062535226345062e-01 2.6002752780914307e-01</leafValues></_></weakClassifiers></_>
    <!-- stage 7 -->
    <_>
      <maxWeakCount>47</maxWeakCount>
      <stageThreshold>-7.8428584337234497e-01</stageThreshold>
      <weakClassifiers>
        <_>
          <internalNodes>
            0 -1 117 -5.7397596538066864e-03</internalNodes>
          <leafValues>
            -1.2720848619937897e-01 4.1520100831985474e-01</leafValues></_>
        <_>
          <internalNodes>
            0 -1 6 2.4350181221961975e-02</internalNodes>
          <leafValues>
            -5.3317382931709290e-02 6.5024667978286743e-01</leafValues></_>
        <_>
          <internalNodes>
            0 -1 6 2.4312064051628113e-02</internalNodes>
          <leafValues>
            4.1534547926858068e-04 -1.</leafValues></_>
        <_>
          <internalNodes>
            0 -1 6 2.4269206449389458e-02</internalNodes>
          <leafValues>
            -6.7806686274707317e-04 8.5074883699417114e-01</leafValues></_>
        <_>
          <internalNodes>
            0 -1 315 -1.6154145123437047e-04</internalNodes>
          <leafValues>
            1.7332080006599426e-01 -2.0470455288887024e-01</leafValues></_>
        <_>
          <internalNodes>
            0 -1 78 3.7556253373622894e-03</internalNodes>
          <leafValues>
            6.2792040407657623e-02 -5.6338709592819214e-01</leafValues></_>
        <_>
          <internalNodes>
            0 -1 240 -2.5512952357530594e-02</internalNodes>
          <leafValues>
            -7.2316539287567139e-01 4.2554534971714020e-02</leafValues></_>
        <_>
          <internalNodes>
            0 -1 305 -8.8917448010761291e-05</internalNodes>
          <leafValues>
            1.9257536530494690e-01 -1.6567897796630859e-01</leafValues></_>
        <_>
          <internalNodes>
            0 -1 301 -2.3877006024122238e-03</internalNodes>
          <leafValues>
            3.0088251829147339e-01 -1.0323583334684372e-01</leafValues></_>
        <_>
          <internalNodes>
            0 -1 144 6.0871010646224022e-03</internalNodes>
          <leafValues>
            -9.7472518682479858e-02 3.6775314807891846e-01</leafValues></_>
        <_>
          <internalNodes>
            0 -1 228 2.6784386136569083e-04</internalNodes>
          <leafValues>
            -2.3417036235332489e-01 1.7208130657672882e-01</leafValues></_>
        <_>
          <internalNodes>
            0 -1 237 -3.1031733378767967e-03</internalNodes>
          <leafValues>
            3.9264863729476929e-01 -1.0275852680206299e-01</leafValues></_>
        <_>
          <internalNodes>
            0 -1 245 1.4271268155425787e-03</internalNodes>
          <leafValues>
            7.2412170469760895e-02 -4.7550547122955322e-01</leafValues></_>
        <_>
          <internalNodes>
            0 -1 95 2.9192261863499880e-03</internalNodes>
          <leafValues>
            -1.0906644165515900e-01 3.1674560904502869e-01</leafValues></_>
        <_>
          <internalNodes>
            0 -1 97 1.1500761611387134e-03</internalNodes>
          <leafValues>
            -1.3714781403541565e-01 2.5870609283447266e-01</leafValues></_>
        <_>
          <internalNodes>
            0 -1 77 6.3747819513082504e-03</internalNodes>
          <leafValues>
            1.1100594699382782e-01 -3.7174794077873230e-01</leafValues></_>
        <_>
          <internalNodes>
            0 -1 130 -9.9873738363385201e-03</internalNodes>
          <leafValues>
            3.4160740673542023e-02 -8.3497488498687744e-01</leafValues></_>
        <_>
          <internalNodes>
            0 -1 257 -3.2330403337255120e-04</internalNodes>
          <leafValues>
            -5.9493494033813477e-01 4.3409530073404312e-02</leafValues></_>
        <_>
          <internalNodes>
            0 -1 155 3.5183732397854328e-03</internalNodes>
          <leafValues>
            6.1060663312673569e-02 -4.9496039748191833e-01</leafValues></_>
        <_>
          <internalNodes>
            0 -1 290 2.6304849889129400e-03</internalNodes>
          <leafValues>
            6.6297881305217743e-02 -4.7363322973251343e-01</leafValues></_>
        <_>
          <internalNodes>
            0 -1 244 1.6170337796211243e-02</internalNodes>
          <leafValues>
            -5.2875615656375885e-02 6.2030303478240967e-01</leafValues></_>
        <_>
          <internalNodes>
            0 -1 67 -1.7669577209744602e-04</internalNodes>
          <leafValues>
            2.2216987609863281e-01 -1.5908540785312653e-01</leafValues></_>
        <_>
          <internalNodes>
            0 -1 185 -5.2536386065185070e-03</internalNodes>
          <leafValues>
            -3.7913393974304199e-01 9.3474060297012329e-02</leafValues></_>
        <_>
          <internalNodes>
            0 -1 298 -9.6125947311520576e-04</internalNodes>
          <leafValues>
            3.9090028405189514e-01 -8.7256617844104767e-02</leafValues></_>
        <_>
          <internalNodes>
            0 -1 18 -3.0316159129142761e-02</internalNodes>
          <leafValues>
            -7.3784190416336060e-01 4.5344203710556030e-02</leafValues></_>
        <_>
          <internalNodes>
            0 -1 65 -5.6623725686222315e-04</internalNodes>
          <leafValues>
            2.5288271903991699e-01 -1.3412036001682281e-01</leafValues></_>
        <_>
          <internalNodes>
            0 -1 297 -1.0675468365661800e-04</internalNodes>
          <leafValues>
            1.6993141174316406e-01 -1.9390073418617249e-01</leafValues></_>
        <_>
          <internalNodes>
            0 -1 100 -3.2006308436393738e-02</internalNodes>
          <leafValues>
            -5.1563560962677002e-01 5.9591393917798996e-02</leafValues></_>
        <_>
          <internalNodes>
            0 -1 169 7.9505890607833862e-03</internalNodes>
          <leafValues>
            -1.0709979385137558e-01 3.1283387541770935e-01</leafValues></_>
        <_>
          <internalNodes>
            0 -1 209 -1.7779684276320040e-04</internalNodes>
          <leafValues>
            2.0034430921077728e-01 -1.9931091368198395e-01</leafValues></_>
        <_>
          <internalNodes>
            0 -1 150 -5.0864471122622490e-03</internalNodes>
          <leafValues>
            2.6418727636337280e-01 -1.2370178848505020e-01</leafValues></_>
        <_>
          <internalNodes>
            0 -1 190 8.0076232552528381e-03</internalNodes>
          <leafValues>
            6.9555297493934631e-02 -4.9469503760337830e-01</leafValues></_>
        <_>
          <internalNodes>
            0 -1 30 -1.8257425399497151e-03</internalNodes>
          <leafValues>
            2.1999633312225342e-01 -1.4876188337802887e-01</leafValues></_>
        <_>
          <internalNodes>
            0 -1 49 1.5347003936767578e-03</internalNodes>
          <leafValues>
            -1.1114743351936340e-01 3.9356938004493713e-01</leafValues></_>
        <_>
          <internalNodes>
            0 -1 327 -3.5633609513752162e-05</internalNodes>
          <leafValues>
            1.5756583213806152e-01 -2.2484031319618225e-01</leafValues></_>
        <_>
          <internalNodes>
            0 -1 329 -2.9460355290211737e-04</internalNodes>
          <leafValues>
            -4.1477385163307190e-01 8.1293739378452301e-02</leafValues></_>
        <_>
          <internalNodes>
            0 -1 234 -2.1774813649244606e-04</internalNodes>
          <leafValues>
            -4.9784624576568604e-01 6.3235759735107422e-02</leafValues></_>
        <_>
          <internalNodes>
            0 -1 319 -1.1353546869941056e-04</internalNodes>
          <leafValues>
            1.7033809423446655e-01 -1.9776038825511932e-01</leafValues></_>
        <_>
          <internalNodes>
            0 -1 111 -2.4357733782380819e-03</internalNodes>
          <leafValues>
            3.6900043487548828e-01 -9.2310547828674316e-02</leafValues></_>
        <_>
          <internalNodes>
            0 -1 194 -6.9632060825824738e-02</internalNodes>
          <leafValues>
            -7.0299738645553589e-01 5.0482448190450668e-02</leafValues></_>
        <_>
          <internalNodes>
            0 -1 131 -3.1973153352737427e-02</internalNodes>
          <leafValues>
            7.1386212110519409e-01 -5.1948737353086472e-02</leafValues></_>
        <_>
          <internalNodes>
            0 -1 175 -7.8709016088396311e-04</internalNodes>
          <leafValues>
            2.5149834156036377e-01 -1.3518156111240387e-01</leafValues></_>
        <_>
          <internalNodes>
            0 -1 278 3.7874872214160860e-04</internalNodes>
          <leafValues>
            3.8606941699981689e-02 -8.6757254600524902e-01</leafValues></_>
        <_>
          <internalNodes>
            0 -1 218 -9.8425080068409443e-04</internalNodes>
          <leafValues>
            -6.4219474792480469e-01 4.1618652641773224e-02</leafValues></_>
        <_>
          <internalNodes>
            0 -1 262 5.2636337932199240e-04</internalNodes>
          <leafValues>
            -1.1269394308328629e-01 2.9151037335395813e-01</leafValues></_>
        <_>
          <internalNodes>
            0 -1 199 2.1132829715497792e-04</internalNodes>
          <leafValues>
            1.0184674710035324e-01 -3.5381695628166199e-01</leafValues></_>
        <_>
          <internalNodes>
            0 -1 248 2.2772129625082016e-02</internalNodes>
          <leafValues>
            -7.3625050485134125e-02 5.0103747844696045e-01</leafValues></_></weakClassifiers></_>
    <!-- stage 8 -->
    <_>
      <maxWeakCount>41</maxWeakCount>
      <stageThreshold>-6.9008684158325195e-01</stageThreshold>
      <weakClassifiers>
        <_>
          <internalNodes>
            0 -1 323 -1.3851320545654744e-04</internalNodes>
          <leafValues>
            4.9780124425888062e-01 7.9945802688598633e-02</leafValues></_>
        <_>
          <internalNodes>
            0 -1 57 2.6919931173324585e-02</internalNodes>
          <leafValues>
            -4.7708932310342789e-02 6.3852196931838989e-01</leafValues></_>
        <_>
          <internalNodes>
            0 -1 152 2.2704391740262508e-03</internalNodes>
          <leafValues>
            3.4112367779016495e-02 -5.8869868516921997e-01</leafValues></_>
        <_>
          <internalNodes>
            0 -1 210 -1.4674512203782797e-03</internalNodes>
          <leafValues>
            2.0022580027580261e-01 -1.7151165008544922e-01</leafValues></_>
        <_>
          <internalNodes>
            0 -1 62 1.1971499770879745e-01</internalNodes>
          <leafValues>
            5.7850334793329239e-02 -7.0247435569763184e-01</leafValues></_>
        <_>
          <internalNodes>
            0 -1 229 7.8091752948239446e-04</internalNodes>
          <leafValues>
            -1.9123893976211548e-01 1.9660870730876923e-01</leafValues></_>
        <_>
          <internalNodes>
            0 -1 215 -3.7069823592901230e-03</internalNodes>
          <leafValues>
            5.6681984663009644e-01 -5.4067980498075485e-02</leafValues></_>
        <_>
          <internalNodes>
            0 -1 271 -8.8205933570861816e-04</internalNodes>
          <leafValues>
            3.1820422410964966e-01 -1.2184358388185501e-01</leafValues></_>
        <_>
          <internalNodes>
            0 -1 325 -1.2156261800555512e-04</internalNodes>
          <leafValues>
            1.8208087980747223e-01 -1.8974670767784119e-01</leafValues></_>
        <_>
          <internalNodes>
            0 -1 207 2.7012563077732921e-04</internalNodes>
          <leafValues>
            5.1711175590753555e-02 -6.8865621089935303e-01</leafValues></_>
        <_>
          <internalNodes>
            0 -1 91 3.9102442678995430e-04</internalNodes>
          <leafValues>
            -1.7391525208950043e-01 1.9501595199108124e-01</leafValues></_>
        <_>
          <internalNodes>
            0 -1 66 -6.8396339192986488e-03</internalNodes>
          <leafValues>
            -4.6505045890808105e-01 7.1925267577171326e-02</leafValues></_>
        <_>
          <internalNodes>
            0 -1 179 7.3202592320740223e-03</internalNodes>
          <leafValues>
            -1.0503838211297989e-01 3.2697707414627075e-01</leafValues></_>
        <_>
          <internalNodes>
            0 -1 322 4.1667663026601076e-05</internalNodes>
          <leafValues>
            1.2304524332284927e-01 -3.0666139721870422e-01</leafValues></_>
        <_>
          <internalNodes>
            0 -1 69 -4.3225038098171353e-04</internalNodes>
          <leafValues>
            1.8284109234809875e-01 -1.8153135478496552e-01</leafValues></_>
        <_>
          <internalNodes>
            0 -1 227 4.4591212645173073e-03</internalNodes>
          <leafValues>
            7.9457491636276245e-02 -5.0153750181198120e-01</leafValues></_>
        <_>
          <internalNodes>
            0 -1 16 -7.4285387992858887e-02</internalNodes>
          <leafValues>
            -3.1886008381843567e-01 1.2074445188045502e-01</leafValues></_>
        <_>
          <internalNodes>
            0 -1 82 1.0715797543525696e-04</internalNodes>
          <leafValues>
            -2.0277620851993561e-01 1.5994422137737274e-01</leafValues></_>
        <_>
          <internalNodes>
            0 -1 266 3.8278673309832811e-04</internalNodes>
          <leafValues>
            -1.0315614938735962e-01 3.0990397930145264e-01</leafValues></_>
        <_>
          <internalNodes>
            0 -1 291 9.7728241235017776e-04</internalNodes>
          <leafValues>
            7.1277201175689697e-02 -4.9487140774726868e-01</leafValues></_>
        <_>
          <internalNodes>
            0 -1 22 -1.3610050082206726e-03</internalNodes>
          <leafValues>
            1.9973361492156982e-01 -1.7107026278972626e-01</leafValues></_>
        <_>
          <internalNodes>
            0 -1 3 3.4104336053133011e-02</internalNodes>
          <leafValues>
            -1.3810351490974426e-01 2.9560503363609314e-01</leafValues></_>
        <_>
          <internalNodes>
            0 -1 201 1.3233537902124226e-04</internalNodes>
          <leafValues>
            -1.6423393785953522e-01 1.9491276144981384e-01</leafValues></_>
        <_>
          <internalNodes>
            0 -1 118 -8.5075909737497568e-04</internalNodes>
          <leafValues>
            4.9748621881008148e-02 -6.9789260625839233e-01</leafValues></_>
        <_>
          <internalNodes>
            0 -1 40 -5.4226890206336975e-03</internalNodes>
          <leafValues>
            7.8549599647521973e-01 -4.7935765236616135e-02</leafValues></_>
        <_>
          <internalNodes>
            0 -1 214 3.5511102760210633e-04</internalNodes>
          <leafValues>
            -2.5111186504364014e-01 1.3580866158008575e-01</leafValues></_>
        <_>
          <internalNodes>
            0 -1 27 -1.4959217980504036e-02</internalNodes>
          <leafValues>
            2.3063005506992340e-01 -1.6757731139659882e-01</leafValues></_>
        <_>
          <internalNodes>
            0 -1 14 -1.6310058534145355e-02</internalNodes>
          <leafValues>
            -8.8007882237434387e-02 3.8704398274421692e-01</leafValues></_>
        <_>
          <internalNodes>
            0 -1 42 -3.3375232014805079e-03</internalNodes>
          <leafValues>
            2.8874108195304871e-01 -1.1502531915903091e-01</leafValues></_>
        <_>
          <internalNodes>
            0 -1 103 -9.9920807406306267e-03</internalNodes>
          <leafValues>
            -4.7227039933204651e-01 8.0285154283046722e-02</leafValues></_>
        <_>
          <internalNodes>
            0 -1 90 2.1230056881904602e-03</internalNodes>
          <leafValues>
            6.0452897101640701e-02 -4.8795649409294128e-01</leafValues></_>
        <_>
          <internalNodes>
            0 -1 52 -2.7885645977221429e-04</internalNodes>
          <leafValues>
            2.3634909093379974e-01 -1.3715842366218567e-01</leafValues></_>
        <_>
          <internalNodes>
            0 -1 342 1.5140839968807995e-04</internalNodes>
          <leafValues>
            1.1770453304052353e-01 -2.7815648913383484e-01</leafValues></_>
        <_>
          <internalNodes>
            0 -1 8 -2.4122580885887146e-02</internalNodes>
          <leafValues>
            5.5308020114898682e-01 -5.5260777473449707e-02</leafValues></_>
        <_>
          <internalNodes>
            0 -1 74 -7.3179984465241432e-03</internalNodes>
          <leafValues>
            5.3018623590469360e-01 -4.8864603042602539e-02</leafValues></_>
        <_>
          <internalNodes>
            0 -1 10 1.0606133379042149e-02</internalNodes>
          <leafValues>
            -6.6834986209869385e-02 4.3414521217346191e-01</leafValues></_>
        <_>
          <internalNodes>
            0 -1 206 -2.5753853842616081e-03</internalNodes>
          <leafValues>
            3.7511009722948074e-02 -9.1502714157104492e-01</leafValues></_>
        <_>
          <internalNodes>
            0 -1 138 2.3439493961632252e-03</internalNodes>
          <leafValues>
            5.2399944514036179e-02 -5.2332031726837158e-01</leafValues></_>
        <_>
          <internalNodes>
            0 -1 12 -2.0692279934883118e-01</internalNodes>
          <leafValues>
            7.2959828376770020e-01 -4.7119826078414917e-02</leafValues></_>
        <_>
          <internalNodes>
            0 -1 219 1.8328984733670950e-03</internalNodes>
          <leafValues>
            -1.2309188395738602e-01 2.4952897429466248e-01</leafValues></_>
        <_>
          <internalNodes>
            0 -1 256 -2.4662716896273196e-04</internalNodes>
          <leafValues>
            -5.6093877553939819e-01 6.0945354402065277e-02</leafValues></_></weakClassifiers></_>
    <!-- stage 9 -->
    <_>
      <maxWeakCount>44</maxWeakCount>
      <stageThreshold>-7.5284379720687866e-01</stageThreshold>
      <weakClassifiers>
        <_>
          <internalNodes>
            0 -1 341 -2.2787318448536098e-04</internalNodes>
          <leafValues>
            5.7567918300628662e-01 1.6333937644958496e-01</leafValues></_>
        <_>
          <internalNodes>
            0 -1 282 -2.6326512452214956e-03</internalNodes>
          <leafValues>
            3.6193570494651794e-01 -1.0542932152748108e-01</leafValues></_>
        <_>
          <internalNodes>
            0 -1 58 -3.0337054282426834e-02</internalNodes>
          <leafValues>
            2.4196971952915192e-01 -1.4873035252094269e-01</leafValues></_>
        <_>
          <internalNodes>
            0 -1 205 3.3289805287495255e-04</internalNodes>
          <leafValues>
            -2.2189915180206299e-01 2.0315887033939362e-01</leafValues></_>
        <_>
          <internalNodes>
            0 -1 4 3.9378121495246887e-02</internalNodes>
          <leafValues>
            -7.1175709366798401e-02 4.1401752829551697e-01</leafValues></_>
        <_>
          <internalNodes>
            0 -1 289 5.9487111866474152e-03</internalNodes>
          <leafValues>
            -1.1598976701498032e-01 3.9215260744094849e-01</leafValues></_>
        <_>
          <internalNodes>
            0 -1 200 1.2180287740193307e-04</internalNodes>
          <leafValues>
            -2.0732368528842926e-01 1.9157361984252930e-01</leafValues></_>
        <_>
          <internalNodes>
            0 -1 115 2.1119997836649418e-04</internalNodes>
          <leafValues>
            -2.4466586112976074e-01 1.5526542067527771e-01</leafValues></_>
        <_>
          <internalNodes>
            0 -1 233 -3.0458578839898109e-04</internalNodes>
          <leafValues>
            -7.2453594207763672e-01 5.6531906127929688e-02</leafValues></_>
        <_>
          <internalNodes>
            0 -1 45 -1.1666145920753479e-01</internalNodes>
          <leafValues>
            -7.0191913843154907e-01 3.5802155733108521e-02</leafValues></_>
        <_>
          <internalNodes>
            0 -1 213 2.1678567864000797e-03</internalNodes>
          <leafValues>
            5.6332807987928391e-02 -5.9841787815093994e-01</leafValues></_>
        <_>
          <internalNodes>
            0 -1 151 -2.4652415886521339e-03</internalNodes>
          <leafValues>
            4.1992026567459106e-01 -7.2962023317813873e-02</leafValues></_>
        <_>
          <internalNodes>
            0 -1 273 3.3344520488753915e-04</internalNodes>
          <leafValues>
            -1.6408574581146240e-01 2.4804835021495819e-01</leafValues></_>
        <_>
          <internalNodes>
            0 -1 13 3.5384975373744965e-02</internalNodes>
          <leafValues>
            4.8614535480737686e-02 -7.1395516395568848e-01</leafValues></_>
        <_>
          <internalNodes>
            0 -1 276 4.7787494258955121e-04</internalNodes>
          <leafValues>
            5.6220639497041702e-02 -5.4427200555801392e-01</leafValues></_>
        <_>
          <internalNodes>
            0 -1 324 -8.7278131104540080e-05</internalNodes>
          <leafValues>
            1.8578429520130157e-01 -1.8901839852333069e-01</leafValues></_>
        <_>
          <internalNodes>
            0 -1 85 -5.2521023899316788e-03</internalNodes>
          <leafValues>
            -8.3171524107456207e-02 3.8265156745910645e-01</leafValues></_>
        <_>
          <internalNodes>
            0 -1 83 8.7760697351768613e-04</internalNodes>
          <leafValues>
            -1.0966771841049194e-01 2.8279805183410645e-01</leafValues></_>
        <_>
          <internalNodes>
            0 -1 333 -4.5287469401955605e-04</internalNodes>
          <leafValues>
            2.0885156095027924e-01 -1.5115766227245331e-01</leafValues></_>
        <_>
          <internalNodes>
            0 -1 106 -3.2455590553581715e-04</internalNodes>
          <leafValues>
            -2.2383330762386322e-01 1.4846991002559662e-01</leafValues></_>
        <_>
          <internalNodes>
            0 -1 288 -1.0718288831412792e-03</internalNodes>
          <leafValues>
            3.5645267367362976e-01 -9.3045182526111603e-02</leafValues></_>
        <_>
          <internalNodes>
            0 -1 9 -3.2857102341949940e-03</internalNodes>
          <leafValues>
            -2.4414204061031342e-01 1.3279861211776733e-01</leafValues></_>
        <_>
          <internalNodes>
            0 -1 24 1.1651105014607310e-03</internalNodes>
          <leafValues>
            1.6795088350772858e-01 -2.3591320216655731e-01</leafValues></_>
        <_>
          <internalNodes>
            0 -1 272 -1.6113335732370615e-04</internalNodes>
          <leafValues>
            2.5942352414131165e-01 -1.5336489677429199e-01</leafValues></_>
        <_>
          <internalNodes>
            0 -1 241 1.2455256364773959e-04</internalNodes>
          <leafValues>
            -2.9079791903495789e-01 1.2469745427370071e-01</leafValues></_>
        <_>
          <internalNodes>
            0 -1 221 -6.1755609931424260e-04</internalNodes>
          <leafValues>
            3.1509047746658325e-01 -9.3886956572532654e-02</leafValues></_>
        <_>
          <internalNodes>
            0 -1 163 -2.9172101058065891e-03</internalNodes>
          <leafValues>
            3.5178968310356140e-01 -1.0394871979951859e-01</leafValues></_>
        <_>
          <internalNodes>
            0 -1 178 -7.1518035838380456e-04</internalNodes>
          <leafValues>
            -5.1350724697113037e-01 6.6545747220516205e-02</leafValues></_>
        <_>
          <internalNodes>
            0 -1 71 1.1515031801536679e-03</internalNodes>
          <leafValues>
            -1.5331648290157318e-01 2.0289438962936401e-01</leafValues></_>
        <_>
          <internalNodes>
            0 -1 312 -4.7801277105463669e-05</internalNodes>
          <leafValues>
            1.8284231424331665e-01 -1.6859778761863708e-01</leafValues></_>
        <_>
          <internalNodes>
            0 -1 195 7.4947078246623278e-04</internalNodes>
          <leafValues>
            6.3690505921840668e-02 -5.3387421369552612e-01</leafValues></_>
        <_>
          <internalNodes>
            0 -1 76 -7.3197297751903534e-04</internalNodes>
          <leafValues>
            3.9077404141426086e-01 -9.1505840420722961e-02</leafValues></_>
        <_>
          <internalNodes>
            0 -1 2 2.9269920196384192e-04</internalNodes>
          <leafValues>
            1.4187648892402649e-01 -2.2105419635772705e-01</leafValues></_>
        <_>
          <internalNodes>
            0 -1 295 -5.2769668400287628e-04</internalNodes>
          <leafValues>
            -7.4634432792663574e-01 4.0641978383064270e-02</leafValues></_>
        <_>
          <internalNodes>
            0 -1 180 -9.8243821412324905e-04</internalNodes>
          <leafValues>
            5.5836331099271774e-02 -4.6798250079154968e-01</leafValues></_>
        <_>
          <internalNodes>
            0 -1 267 6.1470265500247478e-03</internalNodes>
          <leafValues>
            -1.2987673282623291e-01 2.5625392794609070e-01</leafValues></_>
        <_>
          <internalNodes>
            0 -1 50 -3.8181054405868053e-03</internalNodes>
          <leafValues>
            -3.5900023579597473e-01 8.6991362273693085e-02</leafValues></_>
        <_>
          <internalNodes>
            0 -1 41 -5.0746934721246362e-04</internalNodes>
          <leafValues>
            2.7908489108085632e-01 -1.0728408396244049e-01</leafValues></_>
        <_>
          <internalNodes>
            0 -1 128 -6.4103736076503992e-04</internalNodes>
          <leafValues>
            -4.1499999165534973e-01 7.3388040065765381e-02</leafValues></_>
        <_>
          <internalNodes>
            0 -1 186 4.6314654173329473e-04</internalNodes>
          <leafValues>
            -1.9997397065162659e-01 1.5496997535228729e-01</leafValues></_>
        <_>
          <internalNodes>
            0 -1 60 1.0178575292229652e-02</internalNodes>
          <leafValues>
            1.1444696038961411e-01 -3.4943091869354248e-01</leafValues></_>
        <_>
          <internalNodes>
            0 -1 47 -1.2824069708585739e-03</internalNodes>
          <leafValues>
            2.8834924101829529e-01 -1.0073694586753845e-01</leafValues></_>
        <_>
          <internalNodes>
            0 -1 59 -1.0912213474512100e-03</internalNodes>
          <leafValues>
            2.5500181317329407e-01 -1.2814274430274963e-01</leafValues></_>
        <_>
          <internalNodes>
            0 -1 19 -2.1669823676347733e-02</internalNodes>
          <leafValues>
            -5.7512187957763672e-01 6.5098002552986145e-02</leafValues></_></weakClassifiers></_></stages>
  <features>
    <_>
      <rects>
        <_>
          0 3 14 35 -1.</_>
        <_>
          7 3 7 35 2.</_></rects>
      <tilted>0</tilted></_>
    <_>
      <rects>
        <_>
          0 4 22 12 -1.</_>
        <_>
          0 4 11 6 2.</_>
        <_>
          11 10 11 6 2.</_></rects>
      <tilted>0</tilted></_>
    <_>
      <rects>
        <_>
          0 8 2 12 -1.</_>
        <_>
          1 8 1 12 2.</_></rects>
      <tilted>0</tilted></_>
    <_>
      <rects>
        <_>
          0 10 14 27 -1.</_>
        <_>
          7 10 7 27 2.</_></rects>
      <tilted>0</tilted></_>
    <_>
      <rects>
        <_>
          0 11 8 28 -1.</_>
        <_>
          4 11 4 28 2.</_></rects>
      <tilted>0</tilted></_>
    <_>
      <rects>
        <_>
          0 11 14 14 -1.</_>
        <_>
          7 11 7 14 2.</_></rects>
      <tilted>0</tilted></_>
    <_>
      <rects>
        <_>
          0 20 6 11 -1.</_>
        <_>
          3 20 3 11 2.</_></rects>
      <tilted>0</tilted></_>
    <_>
      <rects>
        <_>
          0 20 6 15 -1.</_>
        <_>
          3 20 3 15 2.</_></rects>
      <tilted>0</tilted></_>
    <_>
      <rects>
        <_>
          0 20 6 19 -1.</_>
        <_>
          3 20 3 19 2.</_></rects>
      <tilted>0</tilted></_>
    <_>
      <rects>
        <_>
          0 26 2 14 -1.</_>
        <_>
          0 33 2 7 2.</_></rects>
      <tilted>0</tilted></_>
    <_>
      <rects>
        <_>
          0 36 22 4 -1.</_>
        <_>
          0 38 22 2 2.</_></rects>
      <tilted>0</tilted></_>
    <_>
      <rects>
        <_>
          1 6 3 21 -1.</_>
        <_>
          2 6 1 21 2.</_></rects>
      <tilted>0</tilted></_>
    <_>
      <rects>
        <_>
          1 7 20 27 -1.</_>
        <_>
          11 7 10 27 2.</_></rects>
      <tilted>0</tilted></_>
    <_>
      <rects>
        <_>
          1 17 12 10 -1.</_>
        <_>
          1 22 12 5 2.</_></rects>
      <tilted>0</tilted></_>
    <_>
      <rects>
        <_>
          1 27 3 13 -1.</_>
        <_>
          2 27 1 13 2.</_></rects>
      <tilted>0</tilted></_>
    <_>
      <rects>
        <_>
          2 13 4 10 -1.</_>
        <_>
          2 13 2 5 2.</_>
        <_>
          4 18 2 5 2.</_></rects>
      <tilted>0</tilted></_>
    <_>
      <rects>
        <_>
          2 14 38 12 -1.</_>
        <_>
          21 14 19 12 2.</_></rects>
      <tilted>0</tilted></_>
    <_>
      <rects>
        <_>
          3 14 4 8 -1.</_>
        <_>
          3 14 2 4 2.</_>
        <_>
          5 18 2 4 2.</_></rects>
      <tilted>0</tilted></_>
    <_>
      <rects>
        <_>
          3 14 20 10 -1.</_>
        <_>
          3 14 10 5 2.</_>
        <_>
          13 19 10 5 2.</_></rects>
      <tilted>0</tilted></_>
    <_>
      <rects>
        <_>
          3 15 20 10 -1.</_>
        <_>
          3 15 10 5 2.</_>
        <_>
          13 20 10 5 2.</_></rects>
      <tilted>0</tilted></_>
    <_>
      <rects>
        <_>
          3 16 4 16 -1.</_>
        <_>
          3 16 2 8 2.</_>
        <_>
          5 24 2 8 2.</_></rects>
      <tilted>0</tilted></_>
    <_>
      <rects>
        <_>
          3 19 2 11 -1.</_>
        <_>
          4 19 1 11 2.</_></rects>
      <tilted>0</tilted></_>
    <_>
      <rects>
        <_>
          3 22 8 3 -1.</_>
        <_>
          7 22 4 3 2.</_></rects>
      <tilted>0</tilted></_>
    <_>
      <rects>
        <_>
          3 23 8 7 -1.</_>
        <_>
          7 23 4 7 2.</_></rects>
      <tilted>0</tilted></_>
    <_>
      <rects>
        <_>
          3 28 18 1 -1.</_>
        <_>
          12 28 9 1 2.</_></rects>
      <tilted>0</tilted></_>
    <_>
      <rects>
        <_>
          4 21 8 8 -1.</_>
        <_>
          8 21 4 8 2.</_></rects>
      <tilted>0</tilted></_>
    <_>
      <rects>
        <_>
          4 26 6 3 -1.</_>
        <_>
          7 26 3 3 2.</_></rects>
      <tilted>0</tilted></_>
    <_>
      <rects>
        <_>
          5 17 18 21 -1.</_>
        <_>
          14 17 9 21 2.</_></rects>
      <tilted>0</tilted></_>
    <_>
      <rects>
        <_>
          5 19 28 9 -1.</_>
        <_>
          19 19 14 9 2.</_></rects>
      <tilted>0</tilted></_>
    <_>
      <rects>
        <_>
          5 21 6 12 -1.</_>
        <_>
          8 21 3 12 2.</_></rects>
      <tilted>0</tilted></_>
    <_>
      <rects>
        <_>
          5 21 8 3 -1.</_>
        <_>
          9 21 4 3 2.</_></rects>
      <tilted>0</tilted></_>
    <_>
      <rects>
        <_>
          5 23 6 2 -1.</_>
        <_>
          8 23 3 2 2.</_></rects>
      <tilted>0</tilted></_>
    <_>
      <rects>
        <_>
          5 28 26 1 -1.</_>
        <_>
          18 28 13 1 2.</_></rects>
      <tilted>0</tilted></_>
    <_>
      <rects>
        <_>
          5 32 33 8 -1.</_>
        <_>
          5 36 33 4 2.</_></rects>
      <tilted>0</tilted></_>
    <_>
      <rects>
        <_>
          6 24 10 16 -1.</_>
        <_>
          6 24 5 8 2.</_>
        <_>
          11 32 5 8 2.</_></rects>
      <tilted>0</tilted></_>
    <_>
      <rects>
        <_>
          6 24 30 1 -1.</_>
        <_>
          21 24 15 1 2.</_></rects>
      <tilted>0</tilted></_>
    <_>
      <rects>
        <_>
          6 25 6 6 -1.</_>
        <_>
          9 25 3 6 2.</_></rects>
      <tilted>0</tilted></_>
    <_>
      <rects>
        <_>
          6 26 8 8 -1.</_>
        <_>
          6 26 4 4 2.</_>
        <_>
          10 30 4 4 2.</_></rects>
      <tilted>0</tilted></_>
    <_>
      <rects>
        <_>
          7 15 31 18 -1.</_>
        <_>
          7 24 31 9 2.</_></rects>
      <tilted>0</tilted></_>
    <_>
      <rects>
        <_>
          7 17 6 6 -1.</_>
        <_>
          7 17 3 3 2.</_>
        <_>
          10 20 3 3 2.</_></rects>
      <tilted>0</tilted></_>
    <_>
      <rects>
        <_>
          7 19 4 6 -1.</_>
        <_>
          7 19 2 3 2.</_>
        <_>
          9 22 2 3 2.</_></rects>
      <tilted>0</tilted></_>
    <_>
      <rects>
        <_>
          7 24 4 1 -1.</_>
        <_>
          9 24 2 1 2.</_></rects>
      <tilted>0</tilted></_>
    <_>
      <rects>
        <_>
          7 27 6 8 -1.</_>
        <_>
          7 27 3 4 2.</_>
        <_>
          10 31 3 4 2.</_></rects>
      <tilted>0</tilted></_>
    <_>
      <rects>
        <_>
          7 27 8 10 -1.</_>
        <_>
          7 27 4 5 2.</_>
        <_>
          11 32 4 5 2.</_></rects>
      <tilted>0</tilted></_>
    <_>
      <rects>
        <_>
          7 29 4 3 -1.</_>
        <_>
          9 29 2 3 2.</_></rects>
      <tilted>0</tilted></_>
    <_>
      <rects>
        <_>
          8 9 26 26 -1.</_>
        <_>
          8 9 13 13 2.</_>
        <_>
          21 22 13 13 2.</_></rects>
      <tilted>0</tilted></_>
    <_>
      <rects>
        <_>
          8 14 16 4 -1.</_>
        <_>
          8 16 16 2 2.</_></rects>
      <tilted>0</tilted></_>
    <_>
      <rects>
        <_>
          8 16 4 6 -1.</_>
        <_>
          8 16 2 3 2.</_>
        <_>
          10 19 2 3 2.</_></rects>
      <tilted>0</tilted></_>
    <_>
      <rects>
        <_>
          8 17 6 6 -1.</_>
        <_>
          8 17 3 3 2.</_>
        <_>
          11 20 3 3 2.</_></rects>
      <tilted>0</tilted></_>
    <_>
      <rects>
        <_>
          8 23 4 3 -1.</_>
        <_>
          10 23 2 3 2.</_></rects>
      <tilted>0</tilted></_>
    <_>
      <rects>
        <_>
          8 23 14 2 -1.</_>
        <_>
          15 23 7 2 2.</_></rects>
      <tilted>0</tilted></_>
    <_>
      <rects>
        <_>
          8 26 4 2 -1.</_>
        <_>
          8 27 4 1 2.</_></rects>
      <tilted>0</tilted></_>
    <_>
      <rects>
        <_>
          8 28 2 3 -1.</_>
        <_>
          9 28 1 3 2.</_></rects>
      <tilted>0</tilted></_>
    <_>
      <rects>
        <_>
          9 6 14 4 -1.</_>
        <_>
          9 6 7 2 2.</_>
        <_>
          16 8 7 2 2.</_></rects>
      <tilted>0</tilted></_>
    <_>
      <rects>
        <_>
          9 10 8 2 -1.</_>
        <_>
          13 10 4 2 2.</_></rects>
      <tilted>0</tilted></_>
    <_>
      <rects>
        <_>
          9 12 14 4 -1.</_>
        <_>
          9 14 14 2 2.</_></rects>
      <tilted>0</tilted></_>
    <_>
      <rects>
        <_>
          9 30 18 10 -1.</_>
        <_>
          9 35 18 5 2.</_></rects>
      <tilted>0</tilted></_>
    <_>
      <rects>
        <_>
          10 0 17 6 -1.</_>
        <_>
          10 3 17 3 2.</_></rects>
      <tilted>0</tilted></_>
    <_>
      <rects>
        <_>
          10 5 20 26 -1.</_>
        <_>
          10 18 20 13 2.</_></rects>
      <tilted>0</tilted></_>
    <_>
      <rects>
        <_>
          10 17 12 4 -1.</_>
        <_>
          10 17 6 2 2.</_>
        <_>
          16 19 6 2 2.</_></rects>
      <tilted>0</tilted></_>
    <_>
      <rects>
        <_>
          10 20 10 11 -1.</_>
        <_>
          15 20 5 11 2.</_></rects>
      <tilted>0</tilted></_>
    <_>
      <rects>
        <_>
          11 1 6 2 -1.</_>
        <_>
          14 1 3 2 2.</_></rects>
      <tilted>0</tilted></_>
    <_>
      <rects>
        <_>
          11 4 24 30 -1.</_>
        <_>
          11 4 12 15 2.</_>
        <_>
          23 19 12 15 2.</_></rects>
      <tilted>0</tilted></_>
    <_>
      <rects>
        <_>
          11 11 4 1 -1.</_>
        <_>
          13 11 2 1 2.</_></rects>
      <tilted>0</tilted></_>
    <_>
      <rects>
        <_>
          11 12 12 18 -1.</_>
        <_>
          17 12 6 18 2.</_></rects>
      <tilted>0</tilted></_>
    <_>
      <rects>
        <_>
          11 15 4 4 -1.</_>
        <_>
          11 15 2 2 2.</_>
        <_>
          13 17 2 2 2.</_></rects>
      <tilted>0</tilted></_>
    <_>
      <rects>
        <_>
          11 18 8 5 -1.</_>
        <_>
          15 18 4 5 2.</_></rects>
      <tilted>0</tilted></_>
    <_>
      <rects>
        <_>
          11 20 2 5 -1.</_>
        <_>
          12 20 1 5 2.</_></rects>
      <tilted>0</tilted></_>
    <_>
      <rects>
        <_>
          11 20 4 5 -1.</_>
        <_>
          13 20 2 5 2.</_></rects>
      <tilted>0</tilted></_>
    <_>
      <rects>
        <_>
          11 20 12 2 -1.</_>
        <_>
          17 20 6 2 2.</_></rects>
      <tilted>0</tilted></_>
    <_>
      <rects>
        <_>
          11 23 6 1 -1.</_>
        <_>
          13 23 2 1 2.</_></rects>
      <tilted>0</tilted></_>
    <_>
      <rects>
        <_>
          11 24 6 6 -1.</_>
        <_>
          11 24 3 3 2.</_>
        <_>
          14 27 3 3 2.</_></rects>
      <tilted>0</tilted></_>
    <_>
      <rects>
        <_>
          11 25 21 2 -1.</_>
        <_>
          18 25 7 2 2.</_></rects>
      <tilted>0</tilted></_>
    <_>
      <rects>
        <_>
          11 29 1 2 -1.</_>
        <_>
          11 30 1 1 2.</_></rects>
      <tilted>0</tilted></_>
    <_>
      <rects>
        <_>
          11 36 8 4 -1.</_>
        <_>
          11 38 8 2 2.</_></rects>
      <tilted>0</tilted></_>
    <_>
      <rects>
        <_>
          12 8 2 5 -1.</_>
        <_>
          13 8 1 5 2.</_></rects>
      <tilted>0</tilted></_>
    <_>
      <rects>
        <_>
          12 15 2 6 -1.</_>
        <_>
          12 15 1 3 2.</_>
        <_>
          13 18 1 3 2.</_></rects>
      <tilted>0</tilted></_>
    <_>
      <rects>
        <_>
          12 16 6 17 -1.</_>
        <_>
          15 16 3 17 2.</_></rects>
      <tilted>0</tilted></_>
    <_>
      <rects>
        <_>
          12 16 10 2 -1.</_>
        <_>
          17 16 5 2 2.</_></rects>
      <tilted>0</tilted></_>
    <_>
      <rects>
        <_>
          12 20 4 5 -1.</_>
        <_>
          14 20 2 5 2.</_></rects>
      <tilted>0</tilted></_>
    <_>
      <rects>
        <_>
          12 21 2 3 -1.</_>
        <_>
          13 21 1 3 2.</_></rects>
      <tilted>0</tilted></_>
    <_>
      <rects>
        <_>
          12 22 4 2 -1.</_>
        <_>
          14 22 2 2 2.</_></rects>
      <tilted>0</tilted></_>
    <_>
      <rects>
        <_>
          12 24 4 6 -1.</_>
        <_>
          12 24 2 3 2.</_>
        <_>
          14 27 2 3 2.</_></rects>
      <tilted>0</tilted></_>
    <_>
      <rects>
        <_>
          12 26 4 6 -1.</_>
        <_>
          12 26 2 3 2.</_>
        <_>
          14 29 2 3 2.</_></rects>
      <tilted>0</tilted></_>
    <_>
      <rects>
        <_>
          12 28 18 1 -1.</_>
        <_>
          21 28 9 1 2.</_></rects>
      <tilted>0</tilted></_>
    <_>
      <rects>
        <_>
          13 0 6 2 -1.</_>
        <_>
          15 0 2 2 2.</_></rects>
      <tilted>0</tilted></_>
    <_>
      <rects>
        <_>
          13 10 5 26 -1.</_>
        <_>
          13 23 5 13 2.</_></rects>
      <tilted>0</tilted></_>
    <_>
      <rects>
        <_>
          13 12 11 2 -1.</_>
        <_>
          13 13 11 1 2.</_></rects>
      <tilted>0</tilted></_>
    <_>
      <rects>
        <_>
          13 15 9 2 -1.</_>
        <_>
          13 16 9 1 2.</_></rects>
      <tilted>0</tilted></_>
    <_>
      <rects>
        <_>
          13 16 1 4 -1.</_>
        <_>
          13 18 1 2 2.</_></rects>
      <tilted>0</tilted></_>
    <_>
      <rects>
        <_>
          13 20 2 16 -1.</_>
        <_>
          13 20 1 8 2.</_>
        <_>
          14 28 1 8 2.</_></rects>
      <tilted>0</tilted></_>
    <_>
      <rects>
        <_>
          13 22 6 4 -1.</_>
        <_>
          13 22 3 2 2.</_>
        <_>
          16 24 3 2 2.</_></rects>
      <tilted>0</tilted></_>
    <_>
      <rects>
        <_>
          14 1 4 8 -1.</_>
        <_>
          14 1 2 4 2.</_>
        <_>
          16 5 2 4 2.</_></rects>
      <tilted>0</tilted></_>
    <_>
      <rects>
        <_>
          14 1 9 6 -1.</_>
        <_>
          14 4 9 3 2.</_></rects>
      <tilted>0</tilted></_>
    <_>
      <rects>
        <_>
          14 4 6 18 -1.</_>
        <_>
          14 13 6 9 2.</_></rects>
      <tilted>0</tilted></_>
    <_>
      <rects>
        <_>
          14 5 4 12 -1.</_>
        <_>
          16 5 2 12 2.</_></rects>
      <tilted>0</tilted></_>
    <_>
      <rects>
        <_>
          14 8 8 2 -1.</_>
        <_>
          14 9 8 1 2.</_></rects>
      <tilted>0</tilted></_>
    <_>
      <rects>
        <_>
          14 9 4 10 -1.</_>
        <_>
          14 9 2 5 2.</_>
        <_>
          16 14 2 5 2.</_></rects>
      <tilted>0</tilted></_>
    <_>
      <rects>
        <_>
          14 10 9 26 -1.</_>
        <_>
          14 23 9 13 2.</_></rects>
      <tilted>0</tilted></_>
    <_>
      <rects>
        <_>
          14 11 3 22 -1.</_>
        <_>
          14 22 3 11 2.</_></rects>
      <tilted>0</tilted></_>
    <_>
      <rects>
        <_>
          14 11 9 24 -1.</_>
        <_>
          14 23 9 12 2.</_></rects>
      <tilted>0</tilted></_>
    <_>
      <rects>
        <_>
          14 12 10 24 -1.</_>
        <_>
          14 24 10 12 2.</_></rects>
      <tilted>0</tilted></_>
    <_>
      <rects>
        <_>
          14 14 16 20 -1.</_>
        <_>
          14 24 16 10 2.</_></rects>
      <tilted>0</tilted></_>
    <_>
      <rects>
        <_>
          14 15 8 17 -1.</_>
        <_>
          18 15 4 17 2.</_></rects>
      <tilted>0</tilted></_>
    <_>
      <rects>
        <_>
          14 16 15 20 -1.</_>
        <_>
          14 26 15 10 2.</_></rects>
      <tilted>0</tilted></_>
    <_>
      <rects>
        <_>
          14 17 2 12 -1.</_>
        <_>
          14 23 2 6 2.</_></rects>
      <tilted>0</tilted></_>
    <_>
      <rects>
        <_>
          14 20 2 10 -1.</_>
        <_>
          14 25 2 5 2.</_></rects>
      <tilted>0</tilted></_>
    <_>
      <rects>
        <_>
          14 29 16 8 -1.</_>
        <_>
          14 29 8 4 2.</_>
        <_>
          22 33 8 4 2.</_></rects>
      <tilted>0</tilted></_>
    <_>
      <rects>
        <_>
          14 30 6 2 -1.</_>
        <_>
          14 31 6 1 2.</_></rects>
      <tilted>0</tilted></_>
    <_>
      <rects>
        <_>
          14 34 5 6 -1.</_>
        <_>
          14 37 5 3 2.</_></rects>
      <tilted>0</tilted></_>
    <_>
      <rects>
        <_>
          15 9 3 28 -1.</_>
        <_>
          15 23 3 14 2.</_></rects>
      <tilted>0</tilted></_>
    <_>
      <rects>
        <_>
          15 11 4 12 -1.</_>
        <_>
          15 11 2 6 2.</_>
        <_>
          17 17 2 6 2.</_></rects>
      <tilted>0</tilted></_>
    <_>
      <rects>
        <_>
          15 11 4 4 -1.</_>
        <_>
          15 13 4 2 2.</_></rects>
      <tilted>0</tilted></_>
    <_>
      <rects>
        <_>
          15 11 5 6 -1.</_>
        <_>
          15 14 5 3 2.</_></rects>
      <tilted>0</tilted></_>
    <_>
      <rects>
        <_>
          15 13 2 6 -1.</_>
        <_>
          15 15 2 2 2.</_></rects>
      <tilted>0</tilted></_>
    <_>
      <rects>
        <_>
          15 13 2 12 -1.</_>
        <_>
          15 19 2 6 2.</_></rects>
      <tilted>0</tilted></_>
    <_>
      <rects>
        <_>
          15 13 10 7 -1.</_>
        <_>
          20 13 5 7 2.</_></rects>
      <tilted>0</tilted></_>
    <_>
      <rects>
        <_>
          15 15 8 14 -1.</_>
        <_>
          19 15 4 14 2.</_></rects>
      <tilted>0</tilted></_>
    <_>
      <rects>
        <_>
          15 16 3 1 -1.</_>
        <_>
          16 16 1 1 2.</_></rects>
      <tilted>0</tilted></_>
    <_>
      <rects>
        <_>
          15 16 3 7 -1.</_>
        <_>
          16 16 1 7 2.</_></rects>
      <tilted>0</tilted></_>
    <_>
      <rects>
        <_>
          15 16 8 14 -1.</_>
        <_>
          19 16 4 14 2.</_></rects>
      <tilted>0</tilted></_>
    <_>
      <rects>
        <_>
          15 16 12 6 -1.</_>
        <_>
          15 16 6 3 2.</_>
        <_>
          21 19 6 3 2.</_></rects>
      <tilted>0</tilted></_>
    <_>
      <rects>
        <_>
          15 16 12 12 -1.</_>
        <_>
          21 16 6 12 2.</_></rects>
      <tilted>0</tilted></_>
    <_>
      <rects>
        <_>
          15 17 6 11 -1.</_>
        <_>
          18 17 3 11 2.</_></rects>
      <tilted>0</tilted></_>
    <_>
      <rects>
        <_>
          15 18 6 4 -1.</_>
        <_>
          18 18 3 4 2.</_></rects>
      <tilted>0</tilted></_>
    <_>
      <rects>
        <_>
          15 20 2 9 -1.</_>
        <_>
          16 20 1 9 2.</_></rects>
      <tilted>0</tilted></_>
    <_>
      <rects>
        <_>
          15 23 3 2 -1.</_>
        <_>
          15 24 3 1 2.</_></rects>
      <tilted>0</tilted></_>
    <_>
      <rects>
        <_>
          15 23 8 4 -1.</_>
        <_>
          15 25 8 2 2.</_></rects>
      <tilted>0</tilted></_>
    <_>
      <rects>
        <_>
          15 26 2 5 -1.</_>
        <_>
          16 26 1 5 2.</_></rects>
      <tilted>0</tilted></_>
    <_>
      <rects>
        <_>
          15 26 14 4 -1.</_>
        <_>
          15 26 7 2 2.</_>
        <_>
          22 28 7 2 2.</_></rects>
      <tilted>0</tilted></_>
    <_>
      <rects>
        <_>
          15 27 12 3 -1.</_>
        <_>
          19 27 4 3 2.</_></rects>
      <tilted>0</tilted></_>
    <_>
      <rects>
        <_>
          15 27 14 10 -1.</_>
        <_>
          15 27 7 5 2.</_>
        <_>
          22 32 7 5 2.</_></rects>
      <tilted>0</tilted></_>
    <_>
      <rects>
        <_>
          15 30 14 8 -1.</_>
        <_>
          15 30 7 4 2.</_>
        <_>
          22 34 7 4 2.</_></rects>
      <tilted>0</tilted></_>
    <_>
      <rects>
        <_>
          16 6 5 10 -1.</_>
        <_>
          16 11 5 5 2.</_></rects>
      <tilted>0</tilted></_>
    <_>
      <rects>
        <_>
          16 13 6 4 -1.</_>
        <_>
          16 15 6 2 2.</_></rects>
      <tilted>0</tilted></_>
    <_>
      <rects>
        <_>
          16 18 12 14 -1.</_>
        <_>
          16 18 6 7 2.</_>
        <_>
          22 25 6 7 2.</_></rects>
      <tilted>0</tilted></_>
    <_>
      <rects>
        <_>
          16 19 6 5 -1.</_>
        <_>
          19 19 3 5 2.</_></rects>
      <tilted>0</tilted></_>
    <_>
      <rects>
        <_>
          16 19 12 2 -1.</_>
        <_>
          22 19 6 2 2.</_></rects>
      <tilted>0</tilted></_>
    <_>
      <rects>
        <_>
          16 21 2 15 -1.</_>
        <_>
          17 21 1 15 2.</_></rects>
      <tilted>0</tilted></_>
    <_>
      <rects>
        <_>
          16 23 2 8 -1.</_>
        <_>
          17 23 1 8 2.</_></rects>
      <tilted>0</tilted></_>
    <_>
      <rects>
        <_>
          16 23 24 12 -1.</_>
        <_>
          28 23 12 12 2.</_></rects>
      <tilted>0</tilted></_>
    <_>
      <rects>
        <_>
          16 24 3 2 -1.</_>
        <_>
          16 25 3 1 2.</_></rects>
      <tilted>0</tilted></_>
    <_>
      <rects>
        <_>
          16 24 4 4 -1.</_>
        <_>
          16 26 4 2 2.</_></rects>
      <tilted>0</tilted></_>
    <_>
      <rects>
        <_>
          16 25 2 2 -1.</_>
        <_>
          16 25 1 1 2.</_>
        <_>
          17 26 1 1 2.</_></rects>
      <tilted>0</tilted></_>
    <_>
      <rects>
        <_>
          16 25 10 8 -1.</_>
        <_>
          16 25 5 4 2.</_>
        <_>
          21 29 5 4 2.</_></rects>
      <tilted>0</tilted></_>
    <_>
      <rects>
        <_>
          16 26 10 10 -1.</_>
        <_>
          16 26 5 5 2.</_>
        <_>
          21 31 5 5 2.</_></rects>
      <tilted>0</tilted></_>
    <_>
      <rects>
        <_>
          16 28 24 3 -1.</_>
        <_>
          28 28 12 3 2.</_></rects>
      <tilted>0</tilted></_>
    <_>
      <rects>
        <_>
          16 29 3 4 -1.</_>
        <_>
          16 31 3 2 2.</_></rects>
      <tilted>0</tilted></_>
    <_>
      <rects>
        <_>
          16 31 1 2 -1.</_>
        <_>
          16 32 1 1 2.</_></rects>
      <tilted>0</tilted></_>
    <_>
      <rects>
        <_>
          17 0 6 12 -1.</_>
        <_>
          17 6 6 6 2.</_></rects>
      <tilted>0</tilted></_>
    <_>
      <rects>
        <_>
          17 2 16 6 -1.</_>
        <_>
          17 2 8 3 2.</_>
        <_>
          25 5 8 3 2.</_></rects>
      <tilted>0</tilted></_>
    <_>
      <rects>
        <_>
          17 7 4 3 -1.</_>
        <_>
          19 7 2 3 2.</_></rects>
      <tilted>0</tilted></_>
    <_>
      <rects>
        <_>
          17 10 5 4 -1.</_>
        <_>
          17 12 5 2 2.</_></rects>
      <tilted>0</tilted></_>
    <_>
      <rects>
        <_>
          17 11 1 16 -1.</_>
        <_>
          17 19 1 8 2.</_></rects>
      <tilted>0</tilted></_>
    <_>
      <rects>
        <_>
          17 11 1 22 -1.</_>
        <_>
          17 22 1 11 2.</_></rects>
      <tilted>0</tilted></_>
    <_>
      <rects>
        <_>
          17 11 4 6 -1.</_>
        <_>
          17 14 4 3 2.</_></rects>
      <tilted>0</tilted></_>
    <_>
      <rects>
        <_>
          17 14 3 1 -1.</_>
        <_>
          18 14 1 1 2.</_></rects>
      <tilted>0</tilted></_>
    <_>
      <rects>
        <_>
          17 14 1 12 -1.</_>
        <_>
          17 20 1 6 2.</_></rects>
      <tilted>0</tilted></_>
    <_>
      <rects>
        <_>
          17 14 3 24 -1.</_>
        <_>
          17 22 3 8 2.</_></rects>
      <tilted>0</tilted></_>
    <_>
      <rects>
        <_>
          17 17 2 10 -1.</_>
        <_>
          17 22 2 5 2.</_></rects>
      <tilted>0</tilted></_>
    <_>
      <rects>
        <_>
          17 18 2 18 -1.</_>
        <_>
          18 18 1 18 2.</_></rects>
      <tilted>0</tilted></_>
    <_>
      <rects>
        <_>
          17 18 10 11 -1.</_>
        <_>
          22 18 5 11 2.</_></rects>
      <tilted>0</tilted></_>
    <_>
      <rects>
        <_>
          17 19 4 4 -1.</_>
        <_>
          19 19 2 4 2.</_></rects>
      <tilted>0</tilted></_>
    <_>
      <rects>
        <_>
          17 19 10 4 -1.</_>
        <_>
          17 19 5 2 2.</_>
        <_>
          22 21 5 2 2.</_></rects>
      <tilted>0</tilted></_>
    <_>
      <rects>
        <_>
          17 20 10 4 -1.</_>
        <_>
          17 20 5 2 2.</_>
        <_>
          22 22 5 2 2.</_></rects>
      <tilted>0</tilted></_>
    <_>
      <rects>
        <_>
          17 21 6 7 -1.</_>
        <_>
          20 21 3 7 2.</_></rects>
      <tilted>0</tilted></_>
    <_>
      <rects>
        <_>
          17 22 4 7 -1.</_>
        <_>
          19 22 2 7 2.</_></rects>
      <tilted>0</tilted></_>
    <_>
      <rects>
        <_>
          17 22 6 6 -1.</_>
        <_>
          17 22 3 3 2.</_>
        <_>
          20 25 3 3 2.</_></rects>
      <tilted>0</tilted></_>
    <_>
      <rects>
        <_>
          17 22 10 6 -1.</_>
        <_>
          17 22 5 3 2.</_>
        <_>
          22 25 5 3 2.</_></rects>
      <tilted>0</tilted></_>
    <_>
      <rects>
        <_>
          17 22 12 10 -1.</_>
        <_>
          17 22 6 5 2.</_>
        <_>
          23 27 6 5 2.</_></rects>
      <tilted>0</tilted></_>
    <_>
      <rects>
        <_>
          17 23 2 4 -1.</_>
        <_>
          17 25 2 2 2.</_></rects>
      <tilted>0</tilted></_>
    <_>
      <rects>
        <_>
          17 23 3 4 -1.</_>
        <_>
          17 25 3 2 2.</_></rects>
      <tilted>0</tilted></_>
    <_>
      <rects>
        <_>
          17 24 2 6 -1.</_>
        <_>
          18 24 1 6 2.</_></rects>
      <tilted>0</tilted></_>
    <_>
      <rects>
        <_>
          17 25 2 2 -1.</_>
        <_>
          17 25 1 1 2.</_>
        <_>
          18 26 1 1 2.</_></rects>
      <tilted>0</tilted></_>
    <_>
      <rects>
        <_>
          17 25 1 4 -1.</_>
        <_>
          17 27 1 2 2.</_></rects>
      <tilted>0</tilted></_>
    <_>
      <rects>
        <_>
          17 25 6 4 -1.</_>
        <_>
          17 25 3 2 2.</_>
        <_>
          20 27 3 2 2.</_></rects>
      <tilted>0</tilted></_>
    <_>
      <rects>
        <_>
          17 28 2 2 -1.</_>
        <_>
          17 28 1 1 2.</_>
        <_>
          18 29 1 1 2.</_></rects>
      <tilted>0</tilted></_>
    <_>
      <rects>
        <_>
          17 28 12 3 -1.</_>
        <_>
          23 28 6 3 2.</_></rects>
      <tilted>0</tilted></_>
    <_>
      <rects>
        <_>
          17 29 2 4 -1.</_>
        <_>
          18 29 1 4 2.</_></rects>
      <tilted>0</tilted></_>
    <_>
      <rects>
        <_>
          17 30 12 6 -1.</_>
        <_>
          17 30 6 3 2.</_>
        <_>
          23 33 6 3 2.</_></rects>
      <tilted>0</tilted></_>
    <_>
      <rects>
        <_>
          17 33 3 1 -1.</_>
        <_>
          18 33 1 1 2.</_></rects>
      <tilted>0</tilted></_>
    <_>
      <rects>
        <_>
          18 3 4 4 -1.</_>
        <_>
          18 5 4 2 2.</_></rects>
      <tilted>0</tilted></_>
    <_>
      <rects>
        <_>
          18 5 14 10 -1.</_>
        <_>
          18 5 7 5 2.</_>
        <_>
          25 10 7 5 2.</_></rects>
      <tilted>0</tilted></_>
    <_>
      <rects>
        <_>
          18 9 2 8 -1.</_>
        <_>
          19 9 1 8 2.</_></rects>
      <tilted>0</tilted></_>
    <_>
      <rects>
        <_>
          18 10 4 2 -1.</_>
        <_>
          20 10 2 2 2.</_></rects>
      <tilted>0</tilted></_>
    <_>
      <rects>
        <_>
          18 10 6 6 -1.</_>
        <_>
          18 13 6 3 2.</_></rects>
      <tilted>0</tilted></_>
    <_>
      <rects>
        <_>
          18 14 1 8 -1.</_>
        <_>
          18 18 1 4 2.</_></rects>
      <tilted>0</tilted></_>
    <_>
      <rects>
        <_>
          18 14 1 10 -1.</_>
        <_>
          18 19 1 5 2.</_></rects>
      <tilted>0</tilted></_>
    <_>
      <rects>
        <_>
          18 14 4 20 -1.</_>
        <_>
          18 24 4 10 2.</_></rects>
      <tilted>0</tilted></_>
    <_>
      <rects>
        <_>
          18 15 1 10 -1.</_>
        <_>
          18 20 1 5 2.</_></rects>
      <tilted>0</tilted></_>
    <_>
      <rects>
        <_>
          18 18 3 10 -1.</_>
        <_>
          18 23 3 5 2.</_></rects>
      <tilted>0</tilted></_>
    <_>
      <rects>
        <_>
          18 19 2 6 -1.</_>
        <_>
          19 19 1 6 2.</_></rects>
      <tilted>0</tilted></_>
    <_>
      <rects>
        <_>
          18 19 2 10 -1.</_>
        <_>
          19 19 1 10 2.</_></rects>
      <tilted>0</tilted></_>
    <_>
      <rects>
        <_>
