<?xml version="1.0"?>
<opencv_storage>
<stage9>
  <maxWeakCount>44</maxWeakCount>
  <stageThreshold>-7.5284379720687866e-01</stageThreshold>
  <weakClassifiers>
    <_>
      <internalNodes>
        0 -1 1210519 -2.2787318448536098e-04</internalNodes>
      <leafValues>
        5.7567918300628662e-01 1.6333937644958496e-01</leafValues></_>
    <_>
      <internalNodes>
        0 -1 1036950 -2.6326512452214956e-03</internalNodes>
      <leafValues>
        3.6193570494651794e-01 -1.0542932152748108e-01</leafValues></_>
    <_>
      <internalNodes>
        0 -1 554625 -3.0337054282426834e-02</internalNodes>
      <leafValues>
        2.4196971952915192e-01 -1.4873035252094269e-01</leafValues></_>
    <_>
      <internalNodes>
        0 -1 894265 3.3289805287495255e-04</internalNodes>
      <leafValues>
        -2.2189915180206299e-01 2.0315887033939362e-01</leafValues></_>
    <_>
      <internalNodes>
        0 -1 29481 3.9378121495246887e-02</internalNodes>
      <leafValues>
        -7.1175709366798401e-02 4.1401752829551697e-01</leafValues></_>
    <_>
      <internalNodes>
        0 -1 1058993 5.9487111866474152e-03</internalNodes>
      <leafValues>
        -1.1598976701498032e-01 3.9215260744094849e-01</leafValues></_>
    <_>
      <internalNodes>
        0 -1 892226 1.2180287740193307e-04</internalNodes>
      <leafValues>
        -2.0732368528842926e-01 1.9157361984252930e-01</leafValues></_>
    <_>
      <internalNodes>
        0 -1 776176 2.1119997836649418e-04</internalNodes>
      <leafValues>
        -2.4466586112976074e-01 1.5526542067527771e-01</leafValues></_>
    <_>
      <internalNodes>
        0 -1 926210 -3.0458578839898109e-04</internalNodes>
      <leafValues>
        -7.2453594207763672e-01 5.6531906127929688e-02</leafValues></_>
    <_>
      <internalNodes>
        0 -1 466974 -1.1666145920753479e-01</internalNodes>
      <leafValues>
        -7.0191913843154907e-01 3.5802155733108521e-02</leafValues></_>
    <_>
      <internalNodes>
        0 -1 915799 2.1678567864000797e-03</internalNodes>
      <leafValues>
        5.6332807987928391e-02 -5.9841787815093994e-01</leafValues></_>
    <_>
      <internalNodes>
        0 -1 841385 -2.4652415886521339e-03</internalNodes>
      <leafValues>
        4.1992026567459106e-01 -7.2962023317813873e-02</leafValues></_>
    <_>
      <internalNodes>
        0 -1 1009870 3.3344520488753915e-04</internalNodes>
      <leafValues>
        -1.6408574581146240e-01 2.4804835021495819e-01</leafValues></_>
    <_>
      <internalNodes>
        0 -1 102122 3.5384975373744965e-02</internalNodes>
      <leafValues>
        4.8614535480737686e-02 -7.1395516395568848e-01</leafValues></_>
    <_>
      <internalNodes>
        0 -1 1012197 4.7787494258955121e-04</internalNodes>
      <leafValues>
        5.6220639497041702e-02 -5.4427200555801392e-01</leafValues></_>
    <_>
      <internalNodes>
        0 -1 1126242 -8.7278131104540080e-05</internalNodes>
      <leafValues>
        1.8578429520130157e-01 -1.8901839852333069e-01</leafValues></_>
    <_>
      <internalNodes>
        0 -1 675080 -5.2521023899316788e-03</internalNodes>
      <leafValues>
        -8.3171524107456207e-02 3.8265156745910645e-01</leafValues></_>
    <_>
      <internalNodes>
        0 -1 669687 8.7760697351768613e-04</internalNodes>
      <leafValues>
        -1.0966771841049194e-01 2.8279805183410645e-01</leafValues></_>
    <_>
      <internalNodes>
        0 -1 1158136 -4.5287469401955605e-04</internalNodes>
      <leafValues>
        2.0885156095027924e-01 -1.5115766227245331e-01</leafValues></_>
    <_>
      <internalNodes>
        0 -1 745719 -3.2455590553581715e-04</internalNodes>
      <leafValues>
        -2.2383330762386322e-01 1.4846991002559662e-01</leafValues></_>
    <_>
      <internalNodes>
        0 -1 1058160 -1.0718288831412792e-03</internalNodes>
      <leafValues>
        3.5645267367362976e-01 -9.3045182526111603e-02</leafValues></_>
    <_>
      <internalNodes>
        0 -1 53930 -3.2857102341949940e-03</internalNodes>
      <leafValues>
        -2.4414204061031342e-01 1.3279861211776733e-01</leafValues></_>
    <_>
      <internalNodes>
        0 -1 230546 1.1651105014607310e-03</internalNodes>
      <leafValues>
        1.6795088350772858e-01 -2.3591320216655731e-01</leafValues></_>
    <_>
      <internalNodes>
        0 -1 1007469 -1.6113335732370615e-04</internalNodes>
      <leafValues>
        2.5942352414131165e-01 -1.5336489677429199e-01</leafValues></_>
    <_>
      <internalNodes>
        0 -1 950425 1.2455256364773959e-04</internalNodes>
      <leafValues>
        -2.9079791903495789e-01 1.2469745427370071e-01</leafValues></_>
    <_>
      <internalNodes>
        0 -1 921408 -6.1755609931424260e-04</internalNodes>
      <leafValues>
        3.1509047746658325e-01 -9.3886956572532654e-02</leafValues></_>
    <_>
      <internalNodes>
        0 -1 855437 -2.9172101058065891e-03</internalNodes>
      <leafValues>
        3.5178968310356140e-01 -1.0394871979951859e-01</leafValues></_>
    <_>
      <internalNodes>
        0 -1 862053 -7.1518035838380456e-04</internalNodes>
      <leafValues>
        -5.1350724697113037e-01 6.6545747220516205e-02</leafValues></_>
    <_>
      <internalNodes>
        0 -1 625080 1.1515031801536679e-03</internalNodes>
      <leafValues>
        -1.5331648290157318e-01 2.0289438962936401e-01</leafValues></_>
    <_>
      <internalNodes>
        0 -1 1105956 -4.7801277105463669e-05</internalNodes>
      <leafValues>
        1.8284231424331665e-01 -1.6859778761863708e-01</leafValues></_>
    <_>
      <internalNodes>
        0 -1 890711 7.4947078246623278e-04</internalNodes>
      <leafValues>
        6.3690505921840668e-02 -5.3387421369552612e-01</leafValues></_>
    <_>
      <internalNodes>
        0 -1 658127 -7.3197297751903534e-04</internalNodes>
      <leafValues>
        3.9077404141426086e-01 -9.1505840420722961e-02</leafValues></_>
    <_>
      <internalNodes>
        0 -1 22130 2.9269920196384192e-04</internalNodes>
      <leafValues>
        1.4187648892402649e-01 -2.2105419635772705e-01</leafValues></_>
    <_>
      <internalNodes>
        0 -1 1063159 -5.2769668400287628e-04</internalNodes>
      <leafValues>
        -7.4634432792663574e-01 4.0641978383064270e-02</leafValues></_>
    <_>
      <internalNodes>
        0 -1 863589 -9.8243821412324905e-04</internalNodes>
      <leafValues>
        5.5836331099271774e-02 -4.6798250079154968e-01</leafValues></_>
    <_>
      <internalNodes>
        0 -1 986089 6.1470265500247478e-03</internalNodes>
      <leafValues>
        -1.2987673282623291e-01 2.5625392794609070e-01</leafValues></_>
    <_>
      <internalNodes>
        0 -1 486601 -3.8181054405868053e-03</internalNodes>
      <leafValues>
        -3.5900023579597473e-01 8.6991362273693085e-02</leafValues></_>
    <_>
      <internalNodes>
        0 -1 438225 -5.0746934721246362e-04</internalNodes>
      <leafValues>
        2.7908489108085632e-01 -1.0728408396244049e-01</leafValues></_>
    <_>
      <internalNodes>
        0 -1 788637 -6.4103736076503992e-04</internalNodes>
      <leafValues>
        -4.1499999165534973e-01 7.3388040065765381e-02</leafValues></_>
    <_>
      <internalNodes>
        0 -1 884085 4.6314654173329473e-04</internalNodes>
      <leafValues>
        -1.9997397065162659e-01 1.5496997535228729e-01</leafValues></_>
    <_>
      <internalNodes>
        0 -1 577070 1.0178575292229652e-02</internalNodes>
      <leafValues>
        1.1444696038961411e-01 -3.4943091869354248e-01</leafValues></_>
    <_>
      <internalNodes>
        0 -1 477578 -1.2824069708585739e-03</internalNodes>
      <leafValues>
        2.8834924101829529e-01 -1.0073694586753845e-01</leafValues></_>
    <_>
      <internalNodes>
        0 -1 573424 -1.0912213474512100e-03</internalNodes>
      <leafValues>
        2.5500181317329407e-01 -1.2814274430274963e-01</leafValues></_>
    <_>
      <internalNodes>
        0 -1 214092 -2.1669823676347733e-02</internalNodes>
      <leafValues>
        -5.7512187957763672e-01 6.5098002552986145e-02</leafValues></_></weakClassifiers></stage9>
</opencv_storage>
